digraph Tree {
node [shape=box, style="filled, rounded", color="black", fontname=helvetica] ;
edge [fontname=helvetica] ;
0 [label=<FOD1P__No major &le; 0.5<br/>gini = 0.929<br/>samples = 54184<br/>value = [995, 1971, 1572, 2326, 839, 1946, 2084, 3063, 787<br/>5086, 2251, 1052, 1224, 417, 655, 3727, 448, 7741<br/>2589, 2116, 1280, 6691, 3324]<br/>class = Military Specific>, fillcolor="#cb39e506"] ;
1 [label=<FOD1P__Nursing &le; 0.5<br/>gini = 0.922<br/>samples = 17218<br/>value = [792, 1101, 56, 1691, 560, 1554, 88, 1874, 29, 540<br/>1322, 170, 87, 359, 540, 2154, 78, 1753, 402, 237<br/>261, 1293, 277]<br/>class = Community and Social Service>, fillcolor="#6f39e505"] ;
0 -> 1 [labeldistance=2.5, labelangle=45, headlabel="True"] ;
2 [label=<FOD1P__Computer Science &le; 0.5<br/>gini = 0.921<br/>samples = 16736<br/>value = [790, 1094, 54, 1677, 554, 1551, 87, 1862, 29, 527<br/>985, 155, 86, 357, 538, 2140, 74, 1727, 394, 235<br/>259, 1286, 275]<br/>class = Community and Social Service>, fillcolor="#6f39e505"] ;
1 -> 2 ;
3 [label=<SCHL_ord &le; 22.5<br/>gini = 0.921<br/>samples = 16118<br/>value = [757, 1081, 54, 1643, 549, 1173, 86, 1849, 29, 522<br/>979, 155, 82, 356, 531, 2089, 70, 1701, 389, 230<br/>259, 1263, 271]<br/>class = Community and Social Service>, fillcolor="#6f39e504"] ;
2 -> 3 ;
4 [label=<FOD1P__Computer Engineering &le; 0.5<br/>gini = 0.918<br/>samples = 14909<br/>value = [720, 1059, 52, 1599, 541, 1112, 84, 1683, 28, 510<br/>653, 147, 82, 142, 387, 2018, 70, 1668, 380, 224<br/>253, 1232, 265]<br/>class = Community and Social Service>, fillcolor="#6f39e506"] ;
3 -> 4 ;
5 [label=<FOD1P__Accounting &le; 0.5<br/>gini = 0.918<br/>samples = 14674<br/>value = [697, 1056, 51, 1592, 541, 961, 81, 1683, 27, 509<br/>650, 147, 80, 140, 385, 1997, 66, 1665, 380, 220<br/>252, 1231, 263]<br/>class = Community and Social Service>, fillcolor="#6f39e506"] ;
4 -> 5 ;
6 [label=<FOD1P__Electrical Engineering &le; 0.5<br/>gini = 0.919<br/>samples = 14361<br/>value = [695, 1054, 51, 1404, 538, 955, 80, 1678, 27, 502<br/>649, 147, 79, 139, 382, 1969, 66, 1639, 372, 216<br/>251, 1210, 258]<br/>class = Community and Social Service>, fillcolor="#6f39e506"] ;
5 -> 6 ;
7 [label=<SCHL__Master's degree &le; 0.5<br/>gini = 0.918<br/>samples = 13938<br/>value = [567, 1046, 49, 1389, 537, 820, 77, 1655, 27, 499<br/>646, 146, 77, 138, 377, 1923, 65, 1627, 367, 210<br/>250, 1192, 254]<br/>class = Community and Social Service>, fillcolor="#6f39e506"] ;
6 -> 7 ;
8 [label=<FOD1P__Mechanical Engineering &le; 0.5<br/>gini = 0.918<br/>samples = 10968<br/>value = [411, 869, 43, 1071, 328, 616, 65, 1050, 26, 460<br/>428, 127, 67, 122, 250, 1485, 55, 1465, 321, 194<br/>229, 1060, 226]<br/>class = Community and Social Service>, fillcolor="#6f39e501"] ;
7 -> 8 ;
9 [label=<FOD1P__Commercial Art And Graphic Design &le; 0.5<br/>gini = 0.917<br/>samples = 10778<br/>value = [329, 858, 42, 1062, 327, 600, 65, 1041, 26, 454<br/>426, 127, 61, 119, 247, 1461, 52, 1463, 320, 190<br/>229, 1054, 225]<br/>class = Military Specific>, fillcolor="#cb39e500"] ;
8 -> 9 ;
10 [label=<FOD1P__Film Video And Photographic Arts &le; 0.5<br/>gini = 0.917<br/>samples = 10511<br/>value = [321, 746, 40, 1049, 322, 587, 64, 1031, 26, 446<br/>420, 127, 61, 118, 244, 1429, 52, 1447, 316, 182<br/>228, 1033, 222]<br/>class = Military Specific>, fillcolor="#cb39e501"] ;
9 -> 10 ;
11 [label=<FOD1P__General Education &le; 0.5<br/>gini = 0.917<br/>samples = 10310<br/>value = [319, 660, 39, 1037, 321, 579, 62, 1023, 26, 444<br/>417, 123, 60, 118, 244, 1410, 52, 1417, 314, 180<br/>227, 1020, 218]<br/>class = Military Specific>, fillcolor="#cb39e500"] ;
10 -> 11 ;
12 [label=<FOD2P__Nursing &le; 0.5<br/>gini = 0.917<br/>samples = 10214<br/>value = [319, 658, 37, 1033, 320, 579, 61, 969, 26, 444<br/>414, 123, 60, 118, 244, 1404, 52, 1412, 310, 176<br/>227, 1015, 213]<br/>class = Military Specific>, fillcolor="#cb39e500"] ;
11 -> 12 ;
13 [label=<FOD1P__Computer And Information Systems &le; 0.5<br/>gini = 0.917<br/>samples = 10182<br/>value = [319, 658, 37, 1032, 320, 579, 61, 969, 26, 443<br/>387, 123, 60, 118, 244, 1403, 52, 1410, 310, 176<br/>227, 1015, 213]<br/>class = Military Specific>, fillcolor="#cb39e500"] ;
12 -> 13 ;
14 [label=<FOD1P__Elementary Education &le; 0.5<br/>gini = 0.917<br/>samples = 10093<br/>value = [317, 655, 37, 1028, 320, 532, 61, 969, 26, 440<br/>387, 122, 59, 118, 244, 1390, 52, 1405, 309, 175<br/>227, 1009, 211]<br/>class = Military Specific>, fillcolor="#cb39e500"] ;
13 -> 14 ;
15 [label=<FOD1P__Civil Engineering &le; 0.5<br/>gini = 0.917<br/>samples = 10013<br/>value = [317, 654, 37, 1027, 319, 530, 61, 923, 26, 438<br/>384, 122, 59, 118, 244, 1387, 52, 1397, 300, 174<br/>227, 1006, 211]<br/>class = Military Specific>, fillcolor="#cb39e500"] ;
14 -> 15 ;
16 [label=<FOD1P__Criminal Justice And Fire Protection &le; 0.5<br/>gini = 0.916<br/>samples = 9921<br/>value = [275, 652, 37, 1022, 318, 525, 60, 922, 26, 436<br/>382, 122, 59, 118, 241, 1370, 52, 1391, 299, 174<br/>226, 1004, 210]<br/>class = Military Specific>, fillcolor="#cb39e501"] ;
15 -> 16 ;
17 [label=<FOD1P__Business Management And Administration &le; 0.5<br/>gini = 0.915<br/>samples = 9623<br/>value = [269, 644, 35, 1005, 306, 522, 55, 902, 26, 422<br/>375, 120, 54, 111, 238, 1347, 49, 1350, 291, 169<br/>155, 980, 198]<br/>class = Military Specific>, fillcolor="#cb39e500"] ;
16 -> 17 ;
18 [label=<FOD1P__Economics &le; 0.5<br/>gini = 0.917<br/>samples = 8961<br/>value = [255, 619, 32, 881, 302, 475, 52, 887, 25, 396, 368<br/>118, 48, 108, 236, 1197, 46, 1244, 283, 162, 144<br/>897, 186]<br/>class = Military Specific>, fillcolor="#cb39e502"] ;
17 -> 18 ;
19 [label=<FOD1P__Liberal Arts &le; 0.5<br/>gini = 0.918<br/>samples = 8609<br/>value = [250, 608, 32, 778, 297, 447, 51, 873, 25, 392, 366<br/>116, 47, 106, 233, 1135, 45, 1204, 271, 157, 138<br/>855, 183]<br/>class = Military Specific>, fillcolor="#cb39e502"] ;
18 -> 19 ;
20 [label=<FOD1P__Finance &le; 0.5<br/>gini = 0.918<br/>samples = 8395<br/>value = [246, 602, 32, 774, 293, 442, 50, 800, 24, 386, 357<br/>113, 46, 104, 232, 1111, 44, 1172, 260, 156, 136<br/>834, 181]<br/>class = Military Specific>, fillcolor="#cb39e502"] ;
19 -> 20 ;
21 [label=<FOD1P__General Business &le; 0.5<br/>gini = 0.919<br/>samples = 8165<br/>value = [241, 598, 32, 705, 291, 427, 50, 793, 23, 381, 353<br/>112, 45, 102, 232, 1070, 44, 1140, 259, 153, 133<br/>803, 178]<br/>class = Military Specific>, fillcolor="#cb39e503"] ;
20 -> 21 ;
22 [label=<FOD1P__Mass Media &le; 0.5<br/>gini = 0.92<br/>samples = 7680<br/>value = [234, 589, 28, 627, 283, 403, 47, 778, 23, 368, 345<br/>110, 42, 98, 226, 967, 41, 1072, 249, 140, 124<br/>718, 168]<br/>class = Military Specific>, fillcolor="#cb39e504"] ;
21 -> 22 ;
23 [label=<FOD1P__Architecture &le; 0.5<br/>gini = 0.92<br/>samples = 7510<br/>value = [231, 536, 27, 610, 280, 394, 47, 775, 23, 362, 341<br/>109, 42, 98, 224, 952, 41, 1047, 244, 135, 123<br/>704, 165]<br/>class = Military Specific>, fillcolor="#cb39e504"] ;
22 -> 23 ;
24 [label=<FOD1P__Fine Arts &le; 0.5<br/>gini = 0.92<br/>samples = 7407<br/>value = [200, 516, 27, 605, 279, 390, 47, 771, 23, 361, 341<br/>109, 42, 98, 221, 934, 41, 1039, 244, 134, 123<br/>699, 163]<br/>class = Military Specific>, fillcolor="#cb39e504"] ;
23 -> 24 ;
25 [label=<FOD1P__Communication Technologies &le; 0.5<br/>gini = 0.92<br/>samples = 7210<br/>value = [198, 461, 27, 597, 277, 384, 46, 750, 23, 345, 335<br/>107, 41, 98, 218, 920, 41, 1012, 233, 128, 122<br/>690, 157]<br/>class = Military Specific>, fillcolor="#cb39e504"] ;
24 -> 25 ;
26 [label=<FOD1P__Family And Consumer Sciences &le; 0.5<br/>gini = 0.92<br/>samples = 7137<br/>value = [197, 430, 27, 595, 277, 379, 42, 747, 23, 343, 334<br/>107, 40, 98, 218, 911, 41, 1007, 232, 125, 122<br/>687, 155]<br/>class = Military Specific>, fillcolor="#cb39e504"] ;
25 -> 26 ;
27 [label=<FOD1P__General Engineering &le; 0.5<br/>gini = 0.92<br/>samples = 6956<br/>value = [197, 424, 27, 586, 263, 374, 42, 691, 22, 336, 325<br/>102, 40, 97, 217, 898, 40, 980, 224, 122, 121, 674<br/>154]<br/>class = Military Specific>, fillcolor="#cb39e503"] ;
26 -> 27 ;
28 [label=<FOD1P__Communications &le; 0.5<br/>gini = 0.919<br/>samples = 6854<br/>value = [169, 424, 27, 583, 263, 361, 39, 687, 21, 332, 322<br/>102, 40, 96, 213, 887, 37, 975, 223, 119, 120, 665<br/>149]<br/>class = Military Specific>, fillcolor="#cb39e504"] ;
27 -> 28 ;
29 [label=<FOD1P__Marketing And Marketing Research &le; 0.5<br/>gini = 0.921<br/>samples = 6352<br/>value = [166, 372, 24, 526, 248, 348, 39, 667, 21, 305, 312<br/>101, 36, 89, 209, 802, 37, 881, 206, 114, 118, 590<br/>141]<br/>class = Military Specific>, fillcolor="#cb39e504"] ;
28 -> 29 ;
30 [label=<FOD1P__Biology &le; 0.5<br/>gini = 0.922<br/>samples = 6068<br/>value = [164, 356, 23, 484, 244, 340, 38, 657, 21, 297, 307<br/>101, 34, 89, 207, 746, 37, 838, 195, 111, 114, 532<br/>133]<br/>class = Military Specific>, fillcolor="#cb39e504"] ;
29 -> 30 ;
31 [label=<FOD1P__Aerospace Engineering &le; 0.5<br/>gini = 0.921<br/>samples = 5722<br/>value = [149, 350, 22, 471, 236, 331, 37, 629, 18, 280, 269<br/>88, 32, 88, 172, 723, 29, 779, 184, 96, 106, 508<br/>125]<br/>class = Military Specific>, fillcolor="#cb39e503"] ;
30 -> 31 ;
32 [label=<FOD1P__Business Economics &le; 0.5<br/>gini = 0.921<br/>samples = 5697<br/>value = [137, 349, 22, 471, 236, 328, 37, 629, 18, 280, 269<br/>88, 32, 88, 172, 718, 29, 779, 184, 95, 106, 507<br/>123]<br/>class = Military Specific>, fillcolor="#cb39e503"] ;
31 -> 32 ;
33 [label=<FOD1P__Electrical Engineering Technology &le; 0.5<br/>gini = 0.921<br/>samples = 5610<br/>value = [136, 348, 22, 446, 236, 321, 37, 629, 18, 279, 267<br/>88, 32, 86, 172, 704, 29, 758, 183, 94, 106, 497<br/>122]<br/>class = Military Specific>, fillcolor="#cb39e503"] ;
32 -> 33 ;
34 [label=<FOD1P__Journalism &le; 0.5<br/>gini = 0.921<br/>samples = 5585<br/>value = [133, 347, 22, 445, 236, 308, 37, 629, 18, 279, 267<br/>88, 30, 86, 172, 702, 29, 755, 183, 94, 106, 497<br/>122]<br/>class = Military Specific>, fillcolor="#cb39e503"] ;
33 -> 34 ;
35 [label=<FOD1P__Special Needs Education &le; 0.5<br/>gini = 0.921<br/>samples = 5462<br/>value = [133, 314, 21, 433, 233, 304, 37, 624, 18, 275, 263<br/>87, 30, 85, 171, 684, 29, 741, 179, 94, 104, 484<br/>119]<br/>class = Military Specific>, fillcolor="#cb39e503"] ;
34 -> 35 ;
36 [label=<FOD1P__Mathematics &le; 0.5<br/>gini = 0.921<br/>samples = 5451<br/>value = [133, 314, 21, 433, 232, 304, 37, 615, 18, 274, 263<br/>87, 30, 85, 171, 684, 29, 741, 179, 94, 104, 484<br/>119]<br/>class = Military Specific>, fillcolor="#cb39e503"] ;
35 -> 36 ;
37 [label=<FOD1P__Management Information Systems And Statistics &le; 0.5<br/>gini = 0.922<br/>samples = 5321<br/>value = [129, 309, 21, 417, 231, 281, 37, 585, 18, 273, 262<br/>82, 29, 85, 170, 663, 28, 731, 177, 94, 102, 480<br/>117]<br/>class = Military Specific>, fillcolor="#cb39e504"] ;
36 -> 37 ;
38 [label=<FOD1P__Chemical Engineering &le; 0.5<br/>gini = 0.922<br/>samples = 5274<br/>value = [126, 309, 20, 414, 230, 263, 37, 583, 18, 273, 261<br/>82, 29, 83, 170, 656, 28, 727, 177, 94, 102, 476<br/>116]<br/>class = Military Specific>, fillcolor="#cb39e504"] ;
37 -> 38 ;
39 [label=<FOD1P__Construction Services &le; 0.5<br/>gini = 0.921<br/>samples = 5227<br/>value = [111, 306, 20, 412, 230, 262, 37, 582, 18, 273, 261<br/>82, 29, 82, 165, 647, 28, 725, 176, 92, 102, 473<br/>114]<br/>class = Military Specific>, fillcolor="#cb39e504"] ;
38 -> 39 ;
40 [label=<FOD1P__Drama And Theater Arts &le; 0.5<br/>gini = 0.921<br/>samples = 5198<br/>value = [109, 305, 20, 411, 230, 260, 35, 582, 18, 272, 260<br/>82, 29, 82, 165, 632, 28, 725, 176, 91, 102, 471<br/>113]<br/>class = Military Specific>, fillcolor="#cb39e505"] ;
39 -> 40 ;
41 [label=<FOD1P__Social Work &le; 0.5<br/>gini = 0.921<br/>samples = 5063<br/>value = [109, 275, 20, 404, 229, 259, 34, 573, 18, 258, 260<br/>80, 29, 80, 164, 617, 28, 704, 165, 90, 100, 460<br/>107]<br/>class = Military Specific>, fillcolor="#cb39e505"] ;
40 -> 41 ;
42 [label=<FOD1P__Psychology &le; 0.5<br/>gini = 0.921<br/>samples = 5011<br/>value = [109, 275, 20, 399, 211, 259, 34, 565, 18, 257, 259<br/>80, 29, 80, 164, 611, 28, 696, 164, 90, 100, 456<br/>107]<br/>class = Military Specific>, fillcolor="#cb39e505"] ;
41 -> 42 ;
43 [label=<FOD1P__Theology And Religious Vocations &le; 0.5<br/>gini = 0.922<br/>samples = 4354<br/>value = [105, 252, 19, 344, 141, 236, 32, 471, 18, 222, 213<br/>65, 27, 74, 154, 541, 25, 602, 140, 83, 87, 405<br/>98]<br/>class = Military Specific>, fillcolor="#cb39e504"] ;
42 -> 43 ;
44 [label=<FOD1P__Transportation Sciences And Technologies &le; 0.5<br/>gini = 0.921<br/>samples = 4322<br/>value = [105, 250, 19, 344, 128, 234, 32, 468, 18, 221, 212<br/>65, 26, 74, 154, 539, 25, 601, 138, 82, 85, 404<br/>98]<br/>class = Military Specific>, fillcolor="#cb39e504"] ;
43 -> 44 ;
45 [label=<FOD1P__Language And Drama Education &le; 0.5<br/>gini = 0.921<br/>samples = 4290<br/>value = [103, 250, 19, 343, 128, 234, 31, 466, 17, 220, 211<br/>65, 25, 74, 154, 536, 24, 599, 138, 81, 83, 403<br/>86]<br/>class = Military Specific>, fillcolor="#cb39e504"] ;
44 -> 45 ;
46 [label=<FOD1P__Chemistry &le; 0.5<br/>gini = 0.921<br/>samples = 4274<br/>value = [103, 250, 19, 343, 127, 234, 30, 456, 17, 220, 211<br/>65, 25, 74, 154, 535, 24, 598, 137, 81, 83, 402<br/>86]<br/>class = Military Specific>, fillcolor="#cb39e504"] ;
45 -> 46 ;
47 [label=<FOD1P__Sociology &le; 0.5<br/>gini = 0.921<br/>samples = 4178<br/>value = [100, 247, 19, 338, 127, 229, 30, 442, 17, 219, 201<br/>64, 25, 74, 133, 526, 24, 591, 135, 76, 83, 393<br/>85]<br/>class = Military Specific>, fillcolor="#cb39e505"] ;
46 -> 47 ;
48 [label=<FOD1P__Advertising And Public Relations &le; 0.5<br/>gini = 0.921<br/>samples = 3857<br/>value = [99, 233, 18, 306, 103, 220, 30, 403, 16, 200, 192<br/>60, 25, 68, 130, 502, 24, 523, 122, 72, 72, 360<br/>79]<br/>class = Military Specific>, fillcolor="#cb39e502"] ;
47 -> 48 ;
49 [label=<FOD1P__Hospitality Management &le; 0.5<br/>gini = 0.922<br/>samples = 3795<br/>value = [99, 216, 18, 301, 102, 219, 30, 401, 16, 197, 190<br/>60, 25, 68, 130, 487, 24, 516, 119, 71, 72, 356<br/>78]<br/>class = Military Specific>, fillcolor="#cb39e502"] ;
48 -> 49 ;
50 [label=<FOD1P__Cosmetology Services And Culinary Arts &le; 0.5<br/>gini = 0.922<br/>samples = 3707<br/>value = [99, 216, 17, 289, 99, 218, 30, 396, 16, 186, 189<br/>59, 24, 68, 130, 463, 24, 500, 115, 69, 72, 352<br/>76]<br/>class = Military Specific>, fillcolor="#cb39e503"] ;
49 -> 50 ;
51 [label=<FOD1P__Music &le; 0.5<br/>gini = 0.922<br/>samples = 3687<br/>value = [99, 216, 17, 289, 99, 218, 30, 396, 16, 177, 189<br/>59, 24, 68, 130, 459, 24, 498, 115, 69, 71, 350<br/>74]<br/>class = Military Specific>, fillcolor="#cb39e503"] ;
50 -> 51 ;
52 [label=<FOD1P__Information Sciences &le; 0.5<br/>gini = 0.922<br/>samples = 3576<br/>value = [99, 192, 17, 281, 96, 213, 30, 384, 16, 164, 187<br/>59, 24, 68, 130, 443, 24, 487, 112, 69, 70, 338<br/>73]<br/>class = Military Specific>, fillcolor="#cb39e504"] ;
51 -> 52 ;
53 [label=<FOD1P__Physical Fitness Parks Recreation And Leisure &le; 0.5<br/>gini = 0.922<br/>samples = 3552<br/>value = [99, 192, 17, 281, 96, 203, 30, 383, 16, 163, 186<br/>59, 24, 68, 130, 442, 24, 481, 112, 68, 70, 336<br/>72]<br/>class = Military Specific>, fillcolor="#cb39e503"] ;
52 -> 53 ;
54 [label=<FOD1P__Computer Programming And Data Processing &le; 0.5<br/>gini = 0.922<br/>samples = 3328<br/>value = [97, 180, 14, 267, 93, 199, 28, 354, 16, 153, 161<br/>44, 22, 68, 127, 425, 22, 454, 92, 67, 64, 311<br/>70]<br/>class = Military Specific>, fillcolor="#cb39e503"] ;
53 -> 54 ;
55 [label=<FOD1P__Treatment Therapy Professions &le; 0.5<br/>gini = 0.922<br/>samples = 3317<br/>value = [95, 180, 14, 267, 93, 193, 28, 354, 16, 151, 161<br/>44, 22, 68, 127, 425, 22, 454, 91, 67, 64, 311<br/>70]<br/>class = Military Specific>, fillcolor="#cb39e503"] ;
54 -> 55 ;
56 [label=<FOD1P__Biochemical Sciences &le; 0.5<br/>gini = 0.921<br/>samples = 3281<br/>value = [95, 178, 14, 266, 92, 193, 28, 350, 16, 148, 151<br/>43, 22, 68, 127, 423, 22, 451, 84, 67, 63, 310<br/>70]<br/>class = Military Specific>, fillcolor="#cb39e502"] ;
55 -> 56 ;
57 [label=<FOD1P__Art And Music Education &le; 0.5<br/>gini = 0.921<br/>samples = 3199<br/>value = [91, 176, 14, 265, 90, 184, 28, 341, 16, 147, 146<br/>42, 22, 68, 111, 416, 22, 443, 81, 62, 62, 304<br/>68]<br/>class = Military Specific>, fillcolor="#cb39e502"] ;
56 -> 57 ;
58 [label=<FOD1P__Communication Disorders Sciences And Services &le; 0.5<br/>gini = 0.921<br/>samples = 3176<br/>value = [91, 174, 14, 264, 90, 182, 28, 331, 16, 146, 145<br/>42, 22, 68, 111, 415, 20, 442, 81, 61, 62, 303<br/>68]<br/>class = Military Specific>, fillcolor="#cb39e502"] ;
57 -> 58 ;
59 [label=<FOD1P__Pharmacy Pharmaceutical Sciences And Administration &le; 0.5<br/>gini = 0.92<br/>samples = 3150<br/>value = [91, 171, 14, 264, 90, 182, 28, 324, 16, 143, 138<br/>42, 22, 68, 111, 414, 20, 441, 79, 61, 62, 302<br/>67]<br/>class = Military Specific>, fillcolor="#cb39e503"] ;
58 -> 59 ;
60 [label=<FOD1P__International Business &le; 0.5<br/>gini = 0.92<br/>samples = 3128<br/>value = [91, 171, 14, 264, 90, 180, 28, 320, 16, 143, 130<br/>42, 21, 68, 111, 414, 20, 438, 78, 61, 62, 299<br/>67]<br/>class = Military Specific>, fillcolor="#cb39e502"] ;
59 -> 60 ;
61 [label=<FOD2P__Mass Media &le; 0.5<br/>gini = 0.921<br/>samples = 3080<br/>value = [90, 170, 14, 250, 89, 179, 28, 317, 16, 142, 130<br/>42, 21, 67, 111, 407, 20, 432, 77, 61, 61, 289<br/>67]<br/>class = Military Specific>, fillcolor="#cb39e502"] ;
60 -> 61 ;
62 [label=<FOD1P__Visual And Performing Arts &le; 0.5<br/>gini = 0.921<br/>samples = 3069<br/>value = [90, 164, 14, 250, 89, 178, 28, 317, 16, 142, 130<br/>42, 21, 66, 111, 406, 20, 430, 77, 61, 61, 289<br/>67]<br/>class = Military Specific>, fillcolor="#cb39e502"] ;
61 -> 62 ;
63 [label=<FOD1P__Miscellaneous Psychology &le; 0.5<br/>gini = 0.92<br/>samples = 3005<br/>value = [90, 152, 14, 246, 89, 176, 28, 306, 16, 135, 130<br/>40, 21, 66, 110, 403, 19, 423, 72, 58, 60, 286<br/>65]<br/>class = Military Specific>, fillcolor="#cb39e502"] ;
62 -> 63 ;
64 [label=<FOD1P__Medical Technologies Technicians &le; 0.5<br/>gini = 0.921<br/>samples = 2989<br/>value = [90, 152, 14, 246, 89, 175, 28, 298, 16, 135, 130<br/>40, 21, 66, 109, 401, 19, 420, 72, 58, 59, 286<br/>65]<br/>class = Military Specific>, fillcolor="#cb39e502"] ;
63 -> 64 ;
65 [label=<FOD1P__Forestry &le; 0.5<br/>gini = 0.92<br/>samples = 2980<br/>value = [90, 152, 14, 246, 89, 175, 28, 298, 16, 135, 125<br/>39, 21, 66, 109, 400, 19, 419, 72, 57, 59, 286<br/>65]<br/>class = Military Specific>, fillcolor="#cb39e502"] ;
64 -> 65 ;
66 [label=<FOD1P__English Language And Literature &le; 0.5<br/>gini = 0.92<br/>samples = 2974<br/>value = [90, 152, 14, 246, 89, 174, 28, 298, 16, 135, 125<br/>39, 21, 66, 105, 400, 19, 419, 72, 57, 59, 285<br/>65]<br/>class = Military Specific>, fillcolor="#cb39e502"] ;
65 -> 66 ;
67 [label=<FOD1P__Political Science And Government &le; 0.5<br/>gini = 0.922<br/>samples = 2654<br/>value = [86, 120, 13, 215, 84, 162, 24, 256, 16, 117, 121<br/>37, 20, 61, 102, 353, 15, 364, 63, 55, 54, 258<br/>58]<br/>class = Military Specific>, fillcolor="#cb39e501"] ;
66 -> 67 ;
68 [label=<FOD1P__History &le; 0.5<br/>gini = 0.922<br/>samples = 2340<br/>value = [84, 101, 10, 194, 74, 141, 19, 234, 16, 96, 117<br/>31, 19, 41, 100, 302, 15, 313, 58, 52, 44, 232<br/>47]<br/>class = Military Specific>, fillcolor="#cb39e501"] ;
67 -> 68 ;
69 [label=<FOD1P__Criminology &le; 0.5<br/>gini = 0.923<br/>samples = 2128<br/>value = [80, 91, 9, 177, 71, 133, 18, 196, 16, 86, 110<br/>31, 18, 36, 98, 279, 13, 288, 52, 47, 34, 203<br/>42]<br/>class = Military Specific>, fillcolor="#cb39e501"] ;
68 -> 69 ;
70 [label=<FOD1P__Genetics &le; 0.5<br/>gini = 0.923<br/>samples = 2077<br/>value = [78, 90, 8, 175, 69, 133, 16, 195, 15, 83, 107<br/>31, 18, 36, 97, 276, 13, 274, 52, 46, 28, 197<br/>40]<br/>class = Community and Social Service>, fillcolor="#6f39e500"] ;
69 -> 70 ;
71 [label=<FOD2P__History &le; 0.5<br/>gini = 0.923<br/>samples = 2071<br/>value = [78, 90, 8, 175, 69, 133, 16, 194, 15, 83, 107<br/>31, 18, 36, 93, 275, 13, 274, 52, 46, 28, 197<br/>40]<br/>class = Community and Social Service>, fillcolor="#6f39e500"] ;
70 -> 71 ;
72 [label=<FOD1P__Agriculture Production And Management &le; 0.5<br/>gini = 0.923<br/>samples = 2062<br/>value = [78, 90, 8, 175, 69, 133, 16, 192, 15, 83, 107<br/>31, 18, 36, 93, 274, 13, 274, 52, 45, 28, 192<br/>40]<br/>class = Community and Social Service>, fillcolor="#6f39e500"] ;
71 -> 72 ;
73 [label=<FOD1P__Molecular Biology &le; 0.5<br/>gini = 0.923<br/>samples = 2033<br/>value = [78, 90, 8, 170, 69, 131, 14, 191, 13, 82, 107<br/>31, 18, 36, 93, 267, 13, 274, 52, 43, 28, 185<br/>40]<br/>class = Military Specific>, fillcolor="#cb39e501"] ;
72 -> 73 ;
74 [label=<FOD1P__Engineering Technologies &le; 0.5<br/>gini = 0.922<br/>samples = 1993<br/>value = [75, 90, 7, 168, 69, 131, 14, 185, 13, 79, 101<br/>31, 18, 36, 85, 265, 13, 271, 51, 42, 28, 182<br/>39]<br/>class = Military Specific>, fillcolor="#cb39e501"] ;
73 -> 74 ;
75 [label=<FOD1P__Medical Assisting Services &le; 0.5<br/>gini = 0.922<br/>samples = 1983<br/>value = [71, 90, 7, 168, 69, 128, 14, 185, 13, 79, 101<br/>31, 18, 36, 85, 264, 13, 271, 51, 42, 28, 181<br/>38]<br/>class = Military Specific>, fillcolor="#cb39e501"] ;
74 -> 75 ;
76 [label=<FOD1P__Statistics And Decision Science &le; 0.5<br/>gini = 0.922<br/>samples = 1975<br/>value = [71, 90, 7, 168, 69, 128, 14, 185, 13, 77, 99, 28<br/>18, 36, 85, 264, 13, 271, 51, 41, 28, 181, 38]<br/>class = Military Specific>, fillcolor="#cb39e501"] ;
75 -> 76 ;
77 [label=<FOD1P__Environmental Science &le; 0.5<br/>gini = 0.922<br/>samples = 1959<br/>value = [71, 90, 7, 163, 69, 123, 14, 185, 13, 77, 97, 28<br/>18, 36, 85, 262, 13, 270, 51, 41, 28, 180, 38]<br/>class = Military Specific>, fillcolor="#cb39e501"] ;
76 -> 77 ;
78 [label=<FOD1P__Physiology &le; 0.5<br/>gini = 0.921<br/>samples = 1868<br/>value = [65, 88, 6, 154, 69, 117, 12, 180, 13, 68, 95, 28<br/>17, 36, 72, 253, 13, 261, 51, 37, 25, 172, 36]<br/>class = Military Specific>, fillcolor="#cb39e501"] ;
77 -> 78 ;
79 [label=<FOD1P__Microbiology &le; 0.5<br/>gini = 0.92<br/>samples = 1822<br/>value = [65, 88, 6, 151, 65, 115, 12, 174, 13, 62, 88, 27<br/>16, 36, 68, 252, 13, 255, 50, 35, 25, 171, 35]<br/>class = Military Specific>, fillcolor="#cb39e500"] ;
78 -> 79 ;
80 [label=<FOD1P__Geology And Earth Science &le; 0.5<br/>gini = 0.92<br/>samples = 1801<br/>value = [65, 88, 6, 149, 65, 115, 12, 172, 13, 61, 82, 26<br/>16, 36, 66, 249, 12, 255, 50, 33, 24, 171, 35]<br/>class = Military Specific>, fillcolor="#cb39e501"] ;
79 -> 80 ;
81 [label=<FOD1P__Biomedical Engineering &le; 0.5<br/>gini = 0.919<br/>samples = 1775<br/>value = [64, 87, 6, 148, 65, 115, 12, 168, 12, 59, 81, 26<br/>16, 36, 59, 246, 12, 252, 50, 33, 22, 171, 35]<br/>class = Military Specific>, fillcolor="#cb39e501"] ;
80 -> 81 ;
82 [label=<FOD1P__Secondary Teacher Education &le; 0.5<br/>gini = 0.919<br/>samples = 1746<br/>value = [59, 86, 6, 147, 64, 111, 12, 167, 12, 59, 81, 25<br/>16, 33, 56, 240, 12, 251, 50, 31, 22, 171, 35]<br/>class = Military Specific>, fillcolor="#cb39e502"] ;
81 -> 82 ;
83 [label=<FOD1P__Oceanography &le; 0.5<br/>gini = 0.919<br/>samples = 1742<br/>value = [59, 86, 6, 147, 64, 111, 12, 164, 12, 59, 81, 25<br/>16, 33, 56, 240, 12, 251, 49, 31, 22, 171, 35]<br/>class = Military Specific>, fillcolor="#cb39e502"] ;
82 -> 83 ;
84 [label=<FOD1P__Applied Mathematics &le; 0.5<br/>gini = 0.918<br/>samples = 1729<br/>value = [59, 86, 6, 147, 64, 111, 12, 164, 12, 59, 80, 25<br/>15, 33, 52, 240, 11, 250, 48, 30, 22, 168, 35]<br/>class = Military Specific>, fillcolor="#cb39e502"] ;
83 -> 84 ;
85 [label=<FOD2P__Oceanography &le; 0.5<br/>gini = 0.918<br/>samples = 1712<br/>value = [59, 86, 6, 146, 64, 105, 11, 161, 12, 59, 80, 25<br/>15, 33, 51, 239, 11, 249, 48, 29, 22, 166, 35]<br/>class = Military Specific>, fillcolor="#cb39e502"] ;
84 -> 85 ;
86 [label=<FOD1P__Industrial Production Technologies &le; 0.5<br/>gini = 0.918<br/>samples = 1710<br/>value = [59, 86, 6, 146, 64, 105, 11, 161, 12, 59, 80, 25<br/>15, 33, 49, 239, 11, 249, 48, 29, 22, 166, 35]<br/>class = Military Specific>, fillcolor="#cb39e502"] ;
85 -> 86 ;
87 [label=<FOD1P__Geography &le; 0.5<br/>gini = 0.918<br/>samples = 1696<br/>value = [56, 85, 6, 145, 64, 101, 11, 161, 12, 59, 79, 25<br/>13, 33, 49, 239, 11, 248, 48, 29, 22, 165, 35]<br/>class = Military Specific>, fillcolor="#cb39e502"] ;
86 -> 87 ;
88 [label=<FOD1P__General Medical And Health Services &le; 0.5<br/>gini = 0.917<br/>samples = 1656<br/>value = [50, 84, 6, 144, 64, 95, 11, 160, 12, 56, 78, 25<br/>13, 32, 44, 235, 11, 242, 47, 29, 21, 163, 34]<br/>class = Military Specific>, fillcolor="#cb39e501"] ;
87 -> 88 ;
89 [label=<FOD1P__Nuclear Engineering &le; 0.5<br/>gini = 0.917<br/>samples = 1591<br/>value = [50, 84, 6, 138, 60, 92, 11, 156, 12, 52, 69, 22<br/>13, 31, 43, 229, 11, 226, 45, 29, 21, 158, 33]<br/>class = Community and Social Service>, fillcolor="#6f39e501"] ;
88 -> 89 ;
90 [label=<FOD2P__Computer And Information Systems &le; 0.5<br/>gini = 0.917<br/>samples = 1587<br/>value = [50, 84, 6, 138, 60, 92, 11, 153, 12, 52, 69, 22<br/>13, 31, 43, 228, 11, 226, 45, 29, 21, 158, 33]<br/>class = Community and Social Service>, fillcolor="#6f39e500"] ;
89 -> 90 ;
91 [label=<FOD1P__Health And Medical Administrative Services &le; 0.5<br/>gini = 0.917<br/>samples = 1585<br/>value = [50, 84, 6, 138, 60, 90, 11, 153, 12, 52, 69, 22<br/>13, 31, 43, 228, 11, 226, 45, 29, 21, 158, 33]<br/>class = Community and Social Service>, fillcolor="#6f39e500"] ;
90 -> 91 ;
92 [label=<FOD1P__Miscellaneous Biology &le; 0.5<br/>gini = 0.918<br/>samples = 1551<br/>value = [50, 84, 6, 136, 59, 89, 11, 149, 12, 52, 65, 22<br/>12, 31, 43, 223, 10, 215, 45, 27, 21, 157, 32]<br/>class = Community and Social Service>, fillcolor="#6f39e502"] ;
91 -> 92 ;
93 [label=<FOD1P__Physics &le; 0.5<br/>gini = 0.918<br/>samples = 1524<br/>value = [49, 83, 6, 135, 59, 87, 11, 146, 12, 52, 62, 19<br/>12, 31, 37, 221, 10, 211, 45, 27, 21, 156, 32]<br/>class = Community and Social Service>, fillcolor="#6f39e502"] ;
92 -> 93 ;
94 [label=<FOD2P__Ecology &le; 0.5<br/>gini = 0.917<br/>samples = 1471<br/>value = [45, 81, 4, 131, 58, 79, 10, 136, 12, 52, 61, 19<br/>12, 31, 33, 215, 10, 206, 43, 26, 21, 154, 32]<br/>class = Community and Social Service>, fillcolor="#6f39e502"] ;
93 -> 94 ;
95 [label=<FOD1P__Miscellaneous Engineering &le; 0.5<br/>gini = 0.917<br/>samples = 1469<br/>value = [45, 79, 4, 131, 58, 79, 10, 136, 12, 52, 61, 19<br/>12, 31, 33, 215, 10, 206, 43, 26, 21, 154, 32]<br/>class = Community and Social Service>, fillcolor="#6f39e502"] ;
94 -> 95 ;
96 [label=<FOD1P__Computer Administration Management And Security &le; 0.5<br/>gini = 0.916<br/>samples = 1439<br/>value = [39, 77, 4, 128, 58, 76, 9, 134, 12, 50, 61, 18<br/>12, 30, 32, 210, 10, 205, 43, 25, 21, 154, 31]<br/>class = Community and Social Service>, fillcolor="#6f39e501"] ;
95 -> 96 ;
97 [label=<FOD1P__Animal Sciences &le; 0.5<br/>gini = 0.916<br/>samples = 1425<br/>value = [39, 77, 4, 126, 58, 71, 9, 134, 12, 50, 61, 18<br/>12, 30, 32, 208, 9, 203, 42, 24, 21, 154, 31]<br/>class = Community and Social Service>, fillcolor="#6f39e501"] ;
96 -> 97 ;
98 [label=<FOD1P__Human Services And Community Organization &le; 0.5<br/>gini = 0.915<br/>samples = 1398<br/>value = [39, 77, 4, 124, 57, 70, 8, 133, 8, 50, 56, 17<br/>12, 30, 29, 205, 9, 199, 42, 24, 21, 153, 31]<br/>class = Community and Social Service>, fillcolor="#6f39e501"] ;
97 -> 98 ;
99 [label=<FOD1P__Miscellaneous Health Medical Professions &le; 0.5<br/>gini = 0.915<br/>samples = 1382<br/>value = [39, 76, 4, 124, 52, 70, 8, 132, 8, 49, 56, 16<br/>12, 30, 29, 203, 9, 195, 42, 24, 21, 152, 31]<br/>class = Community and Social Service>, fillcolor="#6f39e502"] ;
98 -> 99 ;
100 [label=<FOD1P__French German Latin And Other Common Foreign Language Studies &le; 0.5<br/>gini = 0.915<br/>samples = 1365<br/>value = [39, 76, 4, 123, 49, 70, 7, 132, 8, 48, 52, 14<br/>12, 30, 29, 202, 9, 193, 42, 24, 21, 150, 31]<br/>class = Community and Social Service>, fillcolor="#6f39e502"] ;
99 -> 100 ;
101 [label=<FOD2P__Political Science And Government &le; 0.5<br/>gini = 0.915<br/>samples = 1316<br/>value = [39, 73, 4, 121, 47, 70, 6, 125, 8, 47, 47, 14<br/>12, 30, 29, 198, 9, 183, 39, 23, 21, 140, 31]<br/>class = Community and Social Service>, fillcolor="#6f39e503"] ;
100 -> 101 ;
102 [label=<FOD1P__Early Childhood Education &le; 0.5<br/>gini = 0.915<br/>samples = 1309<br/>value = [39, 73, 4, 121, 47, 70, 6, 125, 8, 47, 47, 14<br/>12, 28, 29, 198, 9, 181, 39, 23, 21, 137, 31]<br/>class = Community and Social Service>, fillcolor="#6f39e504"] ;
101 -> 102 ;
103 [label=<FOD2P__Forestry &le; 0.5<br/>gini = 0.915<br/>samples = 1300<br/>value = [39, 73, 4, 121, 47, 70, 6, 121, 8, 46, 46, 14<br/>12, 28, 29, 198, 9, 180, 38, 23, 21, 136, 31]<br/>class = Community and Social Service>, fillcolor="#6f39e504"] ;
102 -> 103 ;
104 [label=<FOD1P__Health And Medical Preparatory Programs &le; 0.5<br/>gini = 0.915<br/>samples = 1298<br/>value = [39, 73, 4, 121, 47, 70, 6, 121, 8, 46, 46, 14<br/>12, 28, 29, 198, 9, 178, 38, 23, 21, 136, 31]<br/>class = Community and Social Service>, fillcolor="#6f39e505"] ;
103 -> 104 ;
105 [label=<FOD1P__Nutrition Sciences &le; 0.5<br/>gini = 0.915<br/>samples = 1290<br/>value = [39, 73, 4, 121, 45, 69, 6, 120, 8, 46, 46, 13<br/>12, 28, 27, 198, 9, 178, 38, 23, 20, 136, 31]<br/>class = Community and Social Service>, fillcolor="#6f39e505"] ;
104 -> 105 ;
106 [label=<FOD1P__Physical And Health Education Teaching &le; 0.5<br/>gini = 0.914<br/>samples = 1252<br/>value = [39, 72, 4, 119, 42, 69, 6, 114, 8, 44, 42, 12<br/>11, 28, 27, 194, 9, 176, 37, 22, 19, 128, 30]<br/>class = Community and Social Service>, fillcolor="#6f39e504"] ;
105 -> 106 ;
107 [label=<FOD1P__Industrial And Manufacturing Engineering &le; 0.5<br/>gini = 0.914<br/>samples = 1229<br/>value = [39, 72, 4, 116, 42, 67, 6, 108, 8, 42, 42, 12<br/>11, 28, 27, 192, 9, 174, 34, 22, 19, 127, 28]<br/>class = Community and Social Service>, fillcolor="#6f39e504"] ;
106 -> 107 ;
108 [label=<FOD1P__Composition And Rhetoric &le; 0.5<br/>gini = 0.914<br/>samples = 1205<br/>value = [34, 72, 4, 114, 42, 64, 5, 106, 8, 42, 42, 12<br/>11, 28, 26, 187, 8, 173, 34, 22, 19, 125, 27]<br/>class = Community and Social Service>, fillcolor="#6f39e503"] ;
107 -> 108 ;
109 [label=<FOD1P__Pharmacology &le; 0.5<br/>gini = 0.914<br/>samples = 1175<br/>value = [34, 69, 4, 109, 41, 64, 5, 100, 8, 41, 41, 12<br/>11, 27, 26, 181, 8, 172, 31, 22, 19, 124, 26]<br/>class = Community and Social Service>, fillcolor="#6f39e502"] ;
108 -> 109 ;
110 [label=<FOD1P__Human Resources And Personnel Management &le; 0.5<br/>gini = 0.914<br/>samples = 1171<br/>value = [33, 69, 4, 109, 41, 64, 5, 100, 8, 41, 41, 12<br/>11, 27, 24, 181, 8, 172, 31, 22, 19, 123, 26]<br/>class = Community and Social Service>, fillcolor="#6f39e502"] ;
109 -> 110 ;
111 [label=<FOD1P__Multi/Interdisciplinary Studies &le; 0.5<br/>gini = 0.915<br/>samples = 1125<br/>value = [32, 69, 4, 100, 41, 62, 5, 98, 7, 41, 40, 12<br/>10, 25, 24, 171, 8, 162, 31, 22, 19, 117, 25]<br/>class = Community and Social Service>, fillcolor="#6f39e502"] ;
110 -> 111 ;
112 [label=<FOD1P__Linguistics And Comparative Language And Literature &le; 0.5<br/>gini = 0.916<br/>samples = 1103<br/>value = [32, 69, 4, 99, 39, 60, 5, 94, 7, 41, 39, 12<br/>10, 25, 24, 167, 8, 155, 30, 22, 19, 117, 25]<br/>class = Community and Social Service>, fillcolor="#6f39e503"] ;
111 -> 112 ;
113 [label=<FOD2P__Art History And Criticism &le; 0.5<br/>gini = 0.916<br/>samples = 1066<br/>value = [32, 65, 4, 95, 37, 56, 5, 90, 7, 41, 38, 12<br/>10, 22, 23, 165, 8, 146, 29, 22, 19, 116, 24]<br/>class = Community and Social Service>, fillcolor="#6f39e505"] ;
112 -> 113 ;
114 [label=<FOD2P__Commercial Art And Graphic Design &le; 0.5<br/>gini = 0.916<br/>samples = 1063<br/>value = [32, 63, 4, 95, 37, 56, 5, 89, 7, 41, 38, 12<br/>10, 22, 23, 165, 8, 146, 29, 22, 19, 116, 24]<br/>class = Community and Social Service>, fillcolor="#6f39e505"] ;
113 -> 114 ;
115 [label=<FOD1P__Environmental Engineering &le; 0.5<br/>gini = 0.916<br/>samples = 1056<br/>value = [32, 60, 4, 95, 37, 56, 4, 89, 7, 41, 38, 12<br/>10, 22, 23, 164, 8, 145, 28, 22, 19, 116, 24]<br/>class = Community and Social Service>, fillcolor="#6f39e505"] ;
114 -> 115 ;
116 [label=<FOD1P__Humanities &le; 0.5<br/>gini = 0.915<br/>samples = 1046<br/>value = [30, 60, 4, 93, 37, 56, 4, 87, 7, 41, 38, 12<br/>10, 22, 22, 164, 8, 144, 28, 20, 19, 116, 24]<br/>class = Community and Social Service>, fillcolor="#6f39e506"] ;
115 -> 116 ;
117 [label=<FOD1P__Area Ethnic And Civilization Studies &le; 0.5<br/>gini = 0.915<br/>samples = 1039<br/>value = [30, 60, 4, 93, 37, 56, 4, 85, 7, 40, 38, 12<br/>10, 20, 22, 164, 8, 142, 28, 20, 19, 116, 24]<br/>class = Community and Social Service>, fillcolor="#6f39e506"] ;
116 -> 117 ;
118 [label=<FOD2P__Sociology &le; 0.5<br/>gini = 0.916<br/>samples = 944<br/>value = [30, 54, 4, 88, 27, 53, 4, 79, 7, 36, 35, 12<br/>10, 20, 19, 149, 5, 124, 25, 20, 18, 103, 22]<br/>class = Community and Social Service>, fillcolor="#6f39e508"] ;
117 -> 118 ;
119 [label=<FOD1P__Mathematics Teacher Education &le; 0.5<br/>gini = 0.916<br/>samples = 942<br/>value = [30, 54, 4, 88, 27, 53, 4, 77, 7, 36, 35, 12<br/>10, 20, 19, 149, 5, 124, 25, 20, 18, 103, 22]<br/>class = Community and Social Service>, fillcolor="#6f39e508"] ;
118 -> 119 ;
120 [label=<FOD1P__Computer Networking And Telecommunications &le; 0.5<br/>gini = 0.916<br/>samples = 938<br/>value = [30, 54, 4, 88, 26, 52, 4, 75, 7, 36, 35, 12<br/>10, 20, 19, 149, 5, 124, 25, 20, 18, 103, 22]<br/>class = Community and Social Service>, fillcolor="#6f39e508"] ;
119 -> 120 ;
121 [label=<FOD1P__Materials Science &le; 0.5<br/>gini = 0.916<br/>samples = 927<br/>value = [30, 51, 4, 88, 26, 51, 4, 75, 7, 36, 35, 12<br/>10, 20, 19, 146, 5, 121, 25, 19, 18, 103, 22]<br/>class = Community and Social Service>, fillcolor="#6f39e508"] ;
120 -> 121 ;
122 [label=<FOD1P__Mechanical Engineering Related Technologies &le; 0.5<br/>gini = 0.915<br/>samples = 916<br/>value = [27, 51, 4, 88, 26, 50, 4, 74, 7, 36, 35, 12, 9<br/>20, 18, 145, 4, 120, 25, 18, 18, 103, 22]<br/>class = Community and Social Service>, fillcolor="#6f39e508"] ;
121 -> 122 ;
123 [label=<FOD1P__Biological Engineering &le; 0.5<br/>gini = 0.915<br/>samples = 913<br/>value = [27, 51, 4, 88, 26, 50, 4, 72, 7, 36, 35, 12, 9<br/>20, 18, 144, 4, 120, 25, 18, 18, 103, 22]<br/>class = Community and Social Service>, fillcolor="#6f39e508"] ;
122 -> 123 ;
124 [label=<FOD1P__Miscellaneous Engineering Technologies &le; 0.5<br/>gini = 0.915<br/>samples = 893<br/>value = [24, 51, 4, 86, 26, 47, 4, 69, 7, 36, 35, 11, 9<br/>20, 17, 140, 4, 119, 25, 17, 17, 103, 22]<br/>class = Community and Social Service>, fillcolor="#6f39e507"] ;
123 -> 124 ;
125 [label=<FOD1P__Multi-Disciplinary Or General Science &le; 0.5<br/>gini = 0.914<br/>samples = 883<br/>value = [22, 50, 4, 85, 26, 45, 4, 69, 7, 34, 34, 11, 9<br/>20, 17, 139, 4, 119, 25, 17, 17, 103, 22]<br/>class = Community and Social Service>, fillcolor="#6f39e507"] ;
124 -> 125 ;
126 [label=<FOD1P__Interdisciplinary Social Sciences &le; 0.5<br/>gini = 0.912<br/>samples = 839<br/>value = [19, 50, 4, 81, 26, 42, 4, 65, 7, 32, 29, 10, 8<br/>20, 15, 136, 2, 114, 25, 16, 14, 99, 21]<br/>class = Community and Social Service>, fillcolor="#6f39e508"] ;
125 -> 126 ;
127 [label=<FOD1P__General Social Sciences &le; 0.5<br/>gini = 0.912<br/>samples = 815<br/>value = [16, 50, 4, 81, 23, 42, 4, 63, 7, 30, 29, 9, 8<br/>20, 15, 133, 2, 111, 25, 15, 14, 94, 20]<br/>class = Community and Social Service>, fillcolor="#6f39e508"] ;
126 -> 127 ;
128 [label=<FOD1P__Materials Engineering And Materials Science &le; 0.5<br/>gini = 0.912<br/>samples = 793<br/>value = [16, 50, 4, 81, 23, 40, 4, 59, 7, 29, 29, 9, 7<br/>20, 13, 131, 2, 106, 25, 15, 13, 92, 18]<br/>class = Community and Social Service>, fillcolor="#6f39e509"] ;
127 -> 128 ;
129 [label=<FOD1P__Anthropology And Archeology &le; 0.5<br/>gini = 0.911<br/>samples = 784<br/>value = [14, 49, 4, 81, 23, 38, 4, 58, 7, 29, 29, 9, 7<br/>20, 13, 131, 2, 105, 25, 15, 13, 90, 18]<br/>class = Community and Social Service>, fillcolor="#6f39e50a"] ;
128 -> 129 ;
130 [label=<FOD2P__Environmental Science &le; 0.5<br/>gini = 0.911<br/>samples = 690<br/>value = [11, 45, 4, 74, 21, 36, 3, 50, 7, 22, 27, 6, 7<br/>18, 10, 118, 2, 86, 22, 13, 13, 78, 17]<br/>class = Community and Social Service>, fillcolor="#6f39e50e"] ;
129 -> 130 ;
131 [label=<FOD1P__Industrial And Organizational Psychology &le; 0.5<br/>gini = 0.911<br/>samples = 688<br/>value = [11, 45, 4, 74, 21, 36, 3, 50, 6, 22, 27, 6, 7<br/>18, 9, 118, 2, 86, 22, 13, 13, 78, 17]<br/>class = Community and Social Service>, fillcolor="#6f39e50e"] ;
130 -> 131 ;
132 [label=<FOD1P__Nuclear, Industrial Radiology, And Biological Technologies &le; 0.5<br/>gini = 0.911<br/>samples = 684<br/>value = [11, 45, 4, 72, 21, 36, 3, 50, 6, 22, 27, 6, 7<br/>18, 9, 118, 2, 85, 21, 13, 13, 78, 17]<br/>class = Community and Social Service>, fillcolor="#6f39e50e"] ;
131 -> 132 ;
133 [label=<FOD1P__Naval Architecture And Marine Engineering &le; 0.5<br/>gini = 0.911<br/>samples = 682<br/>value = [11, 45, 4, 72, 21, 36, 3, 50, 6, 22, 26, 5, 7<br/>18, 9, 118, 2, 85, 21, 13, 13, 78, 17]<br/>class = Community and Social Service>, fillcolor="#6f39e50e"] ;
132 -> 133 ;
134 [label=<FOD1P__Miscellaneous Education &le; 0.5<br/>gini = 0.91<br/>samples = 679<br/>value = [11, 45, 4, 72, 21, 35, 3, 50, 6, 22, 25, 5, 7<br/>18, 9, 118, 1, 85, 21, 13, 13, 78, 17]<br/>class = Community and Social Service>, fillcolor="#6f39e50e"] ;
133 -> 134 ;
135 [label=<FOD2P__Biology &le; 0.5<br/>gini = 0.909<br/>samples = 672<br/>value = [11, 45, 4, 71, 20, 34, 3, 50, 6, 22, 25, 5, 6<br/>16, 9, 117, 1, 85, 21, 13, 13, 78, 17]<br/>class = Community and Social Service>, fillcolor="#6f39e50e"] ;
134 -> 135 ;
136 [label=<FOD1P__Neuroscience &le; 0.5<br/>gini = 0.909<br/>samples = 671<br/>value = [11, 45, 4, 71, 20, 34, 3, 50, 6, 22, 25, 5, 6<br/>16, 8, 117, 1, 85, 21, 13, 13, 78, 17]<br/>class = Community and Social Service>, fillcolor="#6f39e50e"] ;
135 -> 136 ;
137 [label=<FOD1P__Philosophy And Religious Studies &le; 0.5<br/>gini = 0.908<br/>samples = 637<br/>value = [9, 43, 4, 67, 20, 30, 3, 48, 6, 22, 20, 5, 6<br/>16, 7, 112, 1, 83, 19, 12, 12, 75, 17]<br/>class = Community and Social Service>, fillcolor="#6f39e50d"] ;
136 -> 137 ;
138 [label=<FOD2P__Communications &le; 0.5<br/>gini = 0.906<br/>samples = 542<br/>value = [6, 33, 4, 58, 17, 23, 2, 36, 6, 19, 17, 5, 6<br/>13, 7, 97, 1, 72, 18, 12, 10, 68, 12]<br/>class = Community and Social Service>, fillcolor="#6f39e50e"] ;
137 -> 138 ;
139 [label=<FOD1P__Miscellaneous Social Sciences &le; 0.5<br/>gini = 0.907<br/>samples = 536<br/>value = [6, 33, 4, 55, 17, 23, 2, 35, 6, 19, 17, 5, 6<br/>13, 7, 97, 1, 71, 18, 12, 10, 67, 12]<br/>class = Community and Social Service>, fillcolor="#6f39e50e"] ;
138 -> 139 ;
140 [label=<FOD1P__Studio Arts &le; 0.5<br/>gini = 0.906<br/>samples = 531<br/>value = [6, 33, 4, 54, 16, 21, 2, 35, 6, 19, 17, 5, 6<br/>13, 7, 96, 1, 71, 18, 12, 10, 67, 12]<br/>class = Community and Social Service>, fillcolor="#6f39e50e"] ;
139 -> 140 ;
141 [label=<FOD2P__Health And Medical Preparatory Programs &le; 0.5<br/>gini = 0.905<br/>samples = 486<br/>value = [5, 27, 4, 49, 16, 21, 2, 31, 6, 17, 13, 5, 5<br/>11, 7, 88, 1, 66, 17, 12, 8, 65, 10]<br/>class = Community and Social Service>, fillcolor="#6f39e50d"] ;
140 -> 141 ;
142 [label=<FOD1P__Engineering And Industrial Management &le; 0.5<br/>gini = 0.905<br/>samples = 485<br/>value = [5, 27, 4, 49, 16, 21, 2, 31, 6, 17, 13, 5, 5<br/>11, 7, 88, 1, 66, 17, 12, 8, 65, 9]<br/>class = Community and Social Service>, fillcolor="#6f39e50d"] ;
141 -> 142 ;
143 [label=<FOD1P__Military Technologies &le; 0.5<br/>gini = 0.904<br/>samples = 484<br/>value = [5, 27, 4, 49, 16, 21, 2, 31, 6, 17, 13, 5, 5<br/>11, 7, 88, 1, 66, 17, 12, 8, 65, 8]<br/>class = Community and Social Service>, fillcolor="#6f39e50d"] ;
142 -> 143 ;
144 [label=<FOD1P__Engineering Mechanics Physics And Science &le; 0.5<br/>gini = 0.904<br/>samples = 483<br/>value = [5, 27, 4, 49, 16, 21, 2, 31, 6, 17, 13, 5, 5<br/>11, 7, 88, 1, 66, 17, 12, 8, 65, 7]<br/>class = Community and Social Service>, fillcolor="#6f39e50d"] ;
143 -> 144 ;
145 [label=<FOD1P__Geosciences &le; 0.5<br/>gini = 0.903<br/>samples = 480<br/>value = [4, 27, 3, 48, 16, 21, 2, 31, 6, 17, 13, 5, 5<br/>11, 7, 88, 1, 66, 17, 12, 8, 65, 7]<br/>class = Community and Social Service>, fillcolor="#6f39e50e"] ;
144 -> 145 ;
146 [label=<FOD1P__Library Science &le; 0.5<br/>gini = 0.903<br/>samples = 479<br/>value = [4, 27, 3, 48, 16, 21, 2, 31, 6, 17, 13, 5, 5<br/>11, 7, 88, 1, 66, 17, 11, 8, 65, 7]<br/>class = Community and Social Service>, fillcolor="#6f39e50e"] ;
145 -> 146 ;
147 [label=<FOD2P__Soil Science &le; 0.5<br/>gini = 0.903<br/>samples = 478<br/>value = [4, 27, 3, 48, 16, 21, 2, 31, 6, 17, 13, 5, 5<br/>11, 7, 88, 1, 66, 17, 10, 8, 65, 7]<br/>class = Community and Social Service>, fillcolor="#6f39e50e"] ;
146 -> 147 ;
148 [label=<FOD2P__Social Work &le; 0.5<br/>gini = 0.902<br/>samples = 477<br/>value = [4, 27, 3, 48, 16, 21, 2, 31, 6, 17, 13, 5, 5<br/>11, 7, 88, 1, 66, 17, 9, 8, 65, 7]<br/>class = Community and Social Service>, fillcolor="#6f39e50e"] ;
147 -> 148 ;
149 [label=<FOD2P__Linguistics And Comparative Language And Literature &le; 0.5<br/>gini = 0.902<br/>samples = 476<br/>value = [4, 27, 3, 48, 15, 21, 2, 31, 6, 17, 13, 5, 5<br/>11, 7, 88, 1, 66, 17, 9, 8, 65, 7]<br/>class = Community and Social Service>, fillcolor="#6f39e50e"] ;
148 -> 149 ;
150 [label=<FOD1P__United States History &le; 0.5<br/>gini = 0.902<br/>samples = 475<br/>value = [4, 27, 3, 48, 14, 21, 2, 31, 6, 17, 13, 5, 5<br/>11, 7, 88, 1, 66, 17, 9, 8, 65, 7]<br/>class = Community and Social Service>, fillcolor="#6f39e50e"] ;
149 -> 150 ;
151 [label=<FOD1P__Art History And Criticism &le; 0.5<br/>gini = 0.901<br/>samples = 470<br/>value = [4, 25, 3, 47, 14, 21, 2, 31, 6, 16, 13, 5, 5<br/>11, 7, 87, 1, 66, 17, 9, 8, 65, 7]<br/>class = Community and Social Service>, fillcolor="#6f39e50d"] ;
150 -> 151 ;
152 [label=<FOD1P__Miscellaneous Fine Arts &le; 0.5<br/>gini = 0.901<br/>samples = 417<br/>value = [3, 19, 3, 41, 13, 20, 2, 26, 6, 14, 12, 5, 5<br/>11, 6, 80, 1, 55, 15, 6, 7, 60, 7]<br/>class = Community and Social Service>, fillcolor="#6f39e50e"] ;
151 -> 152 ;
153 [label=<FOD2P__Criminal Justice And Fire Protection &le; 0.5<br/>gini = 0.899<br/>samples = 408<br/>value = [3, 18, 3, 41, 13, 18, 2, 25, 6, 13, 12, 5, 5<br/>11, 6, 80, 1, 53, 15, 5, 7, 59, 7]<br/>class = Community and Social Service>, fillcolor="#6f39e50f"] ;
152 -> 153 ;
154 [label=<FOD1P__Architectural Engineering &le; 0.5<br/>gini = 0.899<br/>samples = 407<br/>value = [3, 18, 3, 41, 13, 18, 2, 25, 6, 12, 12, 5, 5<br/>11, 6, 80, 1, 53, 15, 5, 7, 59, 7]<br/>class = Community and Social Service>, fillcolor="#6f39e50f"] ;
153 -> 154 ;
155 [label=<FOD2P__General Education &le; 0.5<br/>gini = 0.899<br/>samples = 406<br/>value = [3, 18, 3, 41, 13, 18, 2, 25, 6, 11, 12, 5, 5<br/>11, 6, 80, 1, 53, 15, 5, 7, 59, 7]<br/>class = Community and Social Service>, fillcolor="#6f39e50f"] ;
154 -> 155 ;
156 [label=<FOD2P__Agriculture Production And Management &le; 0.5<br/>gini = 0.898<br/>samples = 405<br/>value = [3, 18, 3, 41, 13, 18, 2, 25, 6, 11, 12, 5, 5<br/>11, 6, 80, 1, 53, 14, 5, 7, 59, 7]<br/>class = Community and Social Service>, fillcolor="#6f39e50f"] ;
155 -> 156 ;
157 [label=<FOD2P__Psychology &le; 0.5<br/>gini = 0.898<br/>samples = 404<br/>value = [3, 18, 3, 41, 13, 18, 2, 25, 6, 11, 12, 5, 5<br/>11, 6, 80, 1, 53, 13, 5, 7, 59, 7]<br/>class = Community and Social Service>, fillcolor="#6f39e510"] ;
156 -> 157 ;
158 [label=<FOD2P__English Language And Literature &le; 0.5<br/>gini = 0.898<br/>samples = 399<br/>value = [3, 18, 3, 40, 13, 16, 2, 24, 6, 11, 12, 5, 5<br/>11, 6, 79, 1, 53, 13, 5, 7, 59, 7]<br/>class = Community and Social Service>, fillcolor="#6f39e50f"] ;
157 -> 158 ;
159 [label=<FOD1P__Clinical Psychology &le; 0.5<br/>gini = 0.897<br/>samples = 398<br/>value = [3, 18, 3, 40, 13, 15, 2, 24, 6, 11, 12, 5, 5<br/>11, 6, 79, 1, 53, 13, 5, 7, 59, 7]<br/>class = Community and Social Service>, fillcolor="#6f39e50f"] ;
158 -> 159 ;
160 [label=<FOD2P__Physical Fitness Parks Recreation And Leisure &le; 0.5<br/>gini = 0.897<br/>samples = 396<br/>value = [3, 18, 3, 40, 13, 15, 2, 23, 6, 11, 12, 5, 5<br/>11, 6, 79, 1, 53, 12, 5, 7, 59, 7]<br/>class = Community and Social Service>, fillcolor="#6f39e50f"] ;
159 -> 160 ;
161 [label=<FOD1P__Electrical, Mechanical, And Precision Technologies And Production &le; 0.5<br/>gini = 0.897<br/>samples = 395<br/>value = [3, 17, 3, 40, 13, 15, 2, 23, 6, 11, 12, 5, 5<br/>11, 6, 79, 1, 53, 12, 5, 7, 59, 7]<br/>class = Community and Social Service>, fillcolor="#6f39e50f"] ;
160 -> 161 ;
162 [label=<FOD2P__Journalism &le; 0.5<br/>gini = 0.896<br/>samples = 394<br/>value = [3, 16, 3, 40, 13, 15, 2, 23, 6, 11, 12, 5, 5<br/>11, 6, 79, 1, 53, 12, 5, 7, 59, 7]<br/>class = Community and Social Service>, fillcolor="#6f39e50f"] ;
161 -> 162 ;
163 [label=<FOD1P__Soil Science &le; 0.5<br/>gini = 0.896<br/>samples = 393<br/>value = [3, 15, 3, 40, 13, 15, 2, 23, 6, 11, 12, 5, 5<br/>11, 6, 79, 1, 53, 12, 5, 7, 59, 7]<br/>class = Community and Social Service>, fillcolor="#6f39e50f"] ;
162 -> 163 ;
164 [label=<FOD1P__Petroleum Engineering &le; 0.5<br/>gini = 0.896<br/>samples = 392<br/>value = [3, 14, 3, 40, 13, 15, 2, 23, 6, 11, 12, 5, 5<br/>11, 6, 79, 1, 53, 12, 5, 7, 59, 7]<br/>class = Community and Social Service>, fillcolor="#6f39e50f"] ;
163 -> 164 ;
165 [label=<FOD1P__Pre-Law And Legal Studies &le; 0.5<br/>gini = 0.895<br/>samples = 389<br/>value = [2, 14, 3, 40, 13, 15, 2, 23, 6, 11, 12, 5, 5<br/>11, 6, 79, 1, 52, 12, 4, 7, 59, 7]<br/>class = Community and Social Service>, fillcolor="#6f39e50f"] ;
164 -> 165 ;
166 [label=<FOD1P__Food Science &le; 0.5<br/>gini = 0.894<br/>samples = 363<br/>value = [2, 14, 3, 34, 13, 14, 2, 21, 6, 10, 11, 5, 5<br/>8, 6, 75, 1, 50, 11, 4, 6, 55, 7]<br/>class = Community and Social Service>, fillcolor="#6f39e511"] ;
165 -> 166 ;
167 [label=<FOD1P__Botany &le; 0.5<br/>gini = 0.893<br/>samples = 358<br/>value = [2, 14, 3, 33, 13, 14, 2, 21, 6, 10, 10, 5, 5<br/>8, 5, 75, 1, 50, 11, 3, 6, 54, 7]<br/>class = Community and Social Service>, fillcolor="#6f39e512"] ;
166 -> 167 ;
168 [label=<FOD1P__Social Science Or History Teacher Education &le; 0.5<br/>gini = 0.892<br/>samples = 355<br/>value = [2, 14, 2, 33, 13, 13, 2, 21, 6, 10, 10, 5, 5<br/>8, 5, 75, 1, 50, 11, 3, 6, 53, 7]<br/>class = Community and Social Service>, fillcolor="#6f39e513"] ;
167 -> 168 ;
169 [label=<FOD1P__Ecology &le; 0.5<br/>gini = 0.891<br/>samples = 351<br/>value = [2, 14, 2, 33, 13, 13, 2, 20, 6, 9, 10, 5, 5<br/>8, 5, 75, 1, 50, 11, 3, 6, 52, 6]<br/>class = Community and Social Service>, fillcolor="#6f39e514"] ;
168 -> 169 ;
170 [label=<FOD2P__No major &le; 0.5<br/>gini = 0.888<br/>samples = 331<br/>value = [1, 13, 2, 32, 13, 13, 2, 17, 6, 8, 9, 5, 5<br/>8, 3, 71, 1, 48, 9, 2, 6, 51, 6]<br/>class = Community and Social Service>, fillcolor="#6f39e512"] ;
169 -> 170 ;
171 [label=<FOD1P__Cognitive Science And Biopsychology &le; 0.5<br/>gini = 0.811<br/>samples = 32<br/>value = [0, 0, 1, 5, 1, 2, 0, 0, 0, 0, 0, 0, 0, 1<br/>0, 9, 0, 8, 1, 0, 0, 4, 0]<br/>class = Community and Social Service>, fillcolor="#6f39e50b"] ;
170 -> 171 ;
172 [label=<FOD2P__International Business &le; 0.5<br/>gini = 0.816<br/>samples = 30<br/>value = [0, 0, 1, 5, 1, 2, 0, 0, 0, 0, 0, 0, 0, 1<br/>0, 9, 0, 6, 1, 0, 0, 4, 0]<br/>class = Community and Social Service>, fillcolor="#6f39e520"] ;
171 -> 172 ;
173 [label=<FOD1P__Other Foreign Languages &le; 0.5<br/>gini = 0.804<br/>samples = 28<br/>value = [0, 0, 1, 5, 1, 2, 0, 0, 0, 0, 0, 0, 0, 1<br/>0, 9, 0, 5, 0, 0, 0, 4, 0]<br/>class = Community and Social Service>, fillcolor="#6f39e52c"] ;
172 -> 173 ;
174 [label=<FOD1P__Public Administration &le; 0.5<br/>gini = 0.798<br/>samples = 27<br/>value = [0, 0, 1, 5, 1, 2, 0, 0, 0, 0, 0, 0, 0, 1<br/>0, 9, 0, 5, 0, 0, 0, 3, 0]<br/>class = Community and Social Service>, fillcolor="#6f39e52e"] ;
173 -> 174 ;
175 [label=<FOD1P__Intercultural And International Studies &le; 0.5<br/>gini = 0.796<br/>samples = 26<br/>value = [0, 0, 1, 4, 1, 2, 0, 0, 0, 0, 0, 0, 0, 1<br/>0, 9, 0, 5, 0, 0, 0, 3, 0]<br/>class = Community and Social Service>, fillcolor="#6f39e531"] ;
174 -> 175 ;
176 [label=<FOD2P__Advertising And Public Relations &le; 0.5<br/>gini = 0.711<br/>samples = 15<br/>value = [0, 0, 1, 1, 0, 1, 0, 0, 0, 0, 0, 0, 0, 0<br/>0, 7, 0, 3, 0, 0, 0, 2, 0]<br/>class = Community and Social Service>, fillcolor="#6f39e555"] ;
175 -> 176 ;
177 [label=<FOD2P__Business Management And Administration &le; 0.5<br/>gini = 0.673<br/>samples = 14<br/>value = [0, 0, 1, 0, 0, 1, 0, 0, 0, 0, 0, 0, 0, 0<br/>0, 7, 0, 3, 0, 0, 0, 2, 0]<br/>class = Community and Social Service>, fillcolor="#6f39e55d"] ;
176 -> 177 ;
178 [label=<FOD2P__Public Policy &le; 0.5<br/>gini = 0.651<br/>samples = 13<br/>value = [0, 0, 1, 0, 0, 1, 0, 0, 0, 0, 0, 0, 0, 0<br/>0, 7, 0, 2, 0, 0, 0, 2, 0]<br/>class = Community and Social Service>, fillcolor="#6f39e574"] ;
177 -> 178 ;
179 [label=<FOD2P__French German Latin And Other Common Foreign Language Studies &le; 0.5<br/>gini = 0.611<br/>samples = 12<br/>value = [0, 0, 1, 0, 0, 1, 0, 0, 0, 0, 0, 0, 0, 0<br/>0, 7, 0, 1, 0, 0, 0, 2, 0]<br/>class = Community and Social Service>, fillcolor="#6f39e580"] ;
178 -> 179 ;
180 [label=<FOD2P__Marketing And Marketing Research &le; 0.5<br/>gini = 0.406<br/>samples = 8<br/>value = [0, 0, 0, 0, 0, 1, 0, 0, 0, 0, 0, 0, 0, 0<br/>0, 6, 0, 0, 0, 0, 0, 1, 0]<br/>class = Community and Social Service>, fillcolor="#6f39e5b6"] ;
179 -> 180 ;
181 [label=<FOD2P__Other Foreign Languages &le; 0.5<br/>gini = 0.278<br/>samples = 6<br/>value = [0, 0, 0, 0, 0, 1, 0, 0, 0, 0, 0, 0, 0, 0<br/>0, 5, 0, 0, 0, 0, 0, 0, 0]<br/>class = Community and Social Service>, fillcolor="#6f39e5cc"] ;
180 -> 181 ;
182 [label=<gini = 0.0<br/>samples = 4<br/>value = [0, 0, 0, 0, 0, 0, 0, 0, 0, 0, 0, 0, 0, 0<br/>0, 4, 0, 0, 0, 0, 0, 0, 0]<br/>class = Community and Social Service>, fillcolor="#6f39e5ff"] ;
181 -> 182 ;
183 [label=<gini = 0.5<br/>samples = 2<br/>value = [0, 0, 0, 0, 0, 1, 0, 0, 0, 0, 0, 0, 0, 0<br/>0, 1, 0, 0, 0, 0, 0, 0, 0]<br/>class = Management>, fillcolor="#6ae53900"] ;
181 -> 183 ;
184 [label=<gini = 0.5<br/>samples = 2<br/>value = [0, 0, 0, 0, 0, 0, 0, 0, 0, 0, 0, 0, 0, 0<br/>0, 1, 0, 0, 0, 0, 0, 1, 0]<br/>class = Community and Social Service>, fillcolor="#6f39e500"] ;
180 -> 184 ;
185 [label=<gini = 0.75<br/>samples = 4<br/>value = [0, 0, 1, 0, 0, 0, 0, 0, 0, 0, 0, 0, 0, 0<br/>0, 1, 0, 1, 0, 0, 0, 1, 0]<br/>class = Personal Care and Service>, fillcolor="#e5da3900"] ;
179 -> 185 ;
186 [label=<gini = 0.0<br/>samples = 1<br/>value = [0, 0, 0, 0, 0, 0, 0, 0, 0, 0, 0, 0, 0, 0<br/>0, 0, 0, 1, 0, 0, 0, 0, 0]<br/>class = Military Specific>, fillcolor="#cb39e5ff"] ;
178 -> 186 ;
187 [label=<gini = 0.0<br/>samples = 1<br/>value = [0, 0, 0, 0, 0, 0, 0, 0, 0, 0, 0, 0, 0, 0<br/>0, 0, 0, 1, 0, 0, 0, 0, 0]<br/>class = Military Specific>, fillcolor="#cb39e5ff"] ;
177 -> 187 ;
188 [label=<gini = 0.0<br/>samples = 1<br/>value = [0, 0, 0, 1, 0, 0, 0, 0, 0, 0, 0, 0, 0, 0<br/>0, 0, 0, 0, 0, 0, 0, 0, 0]<br/>class = Office and Administrative Support>, fillcolor="#c5e539ff"] ;
176 -> 188 ;
189 [label=<FOD2P__Area Ethnic And Civilization Studies &le; 0.5<br/>gini = 0.826<br/>samples = 11<br/>value = [0, 0, 0, 3, 1, 1, 0, 0, 0, 0, 0, 0, 0, 1<br/>0, 2, 0, 2, 0, 0, 0, 1, 0]<br/>class = Office and Administrative Support>, fillcolor="#c5e5391c"] ;
175 -> 189 ;
190 [label=<FOD2P__Economics &le; 0.5<br/>gini = 0.765<br/>samples = 9<br/>value = [0, 0, 0, 3, 0, 1, 0, 0, 0, 0, 0, 0, 0, 1<br/>0, 2, 0, 2, 0, 0, 0, 0, 0]<br/>class = Office and Administrative Support>, fillcolor="#c5e53924"] ;
189 -> 190 ;
191 [label=<FOD2P__General Medical And Health Services &le; 0.5<br/>gini = 0.667<br/>samples = 6<br/>value = [0, 0, 0, 3, 0, 0, 0, 0, 0, 0, 0, 0, 0, 1<br/>0, 1, 0, 1, 0, 0, 0, 0, 0]<br/>class = Office and Administrative Support>, fillcolor="#c5e53966"] ;
190 -> 191 ;
192 [label=<FOD2P__French German Latin And Other Common Foreign Language Studies &le; 0.5<br/>gini = 0.56<br/>samples = 5<br/>value = [0, 0, 0, 3, 0, 0, 0, 0, 0, 0, 0, 0, 0, 1<br/>0, 1, 0, 0, 0, 0, 0, 0, 0]<br/>class = Office and Administrative Support>, fillcolor="#c5e5397f"] ;
191 -> 192 ;
193 [label=<gini = 0.0<br/>samples = 1<br/>value = [0, 0, 0, 1, 0, 0, 0, 0, 0, 0, 0, 0, 0, 0<br/>0, 0, 0, 0, 0, 0, 0, 0, 0]<br/>class = Office and Administrative Support>, fillcolor="#c5e539ff"] ;
192 -> 193 ;
194 [label=<gini = 0.625<br/>samples = 4<br/>value = [0, 0, 0, 2, 0, 0, 0, 0, 0, 0, 0, 0, 0, 1<br/>0, 1, 0, 0, 0, 0, 0, 0, 0]<br/>class = Office and Administrative Support>, fillcolor="#c5e53955"] ;
192 -> 194 ;
195 [label=<gini = 0.0<br/>samples = 1<br/>value = [0, 0, 0, 0, 0, 0, 0, 0, 0, 0, 0, 0, 0, 0<br/>0, 0, 0, 1, 0, 0, 0, 0, 0]<br/>class = Military Specific>, fillcolor="#cb39e5ff"] ;
191 -> 195 ;
196 [label=<gini = 0.667<br/>samples = 3<br/>value = [0, 0, 0, 0, 0, 1, 0, 0, 0, 0, 0, 0, 0, 0<br/>0, 1, 0, 1, 0, 0, 0, 0, 0]<br/>class = Management>, fillcolor="#6ae53900"] ;
190 -> 196 ;
197 [label=<gini = 0.5<br/>samples = 2<br/>value = [0, 0, 0, 0, 1, 0, 0, 0, 0, 0, 0, 0, 0, 0<br/>0, 0, 0, 0, 0, 0, 0, 1, 0]<br/>class = Healthcare Practitioners and Technical>, fillcolor="#98e53900"] ;
189 -> 197 ;
198 [label=<gini = 0.0<br/>samples = 1<br/>value = [0, 0, 0, 1, 0, 0, 0, 0, 0, 0, 0, 0, 0, 0<br/>0, 0, 0, 0, 0, 0, 0, 0, 0]<br/>class = Office and Administrative Support>, fillcolor="#c5e539ff"] ;
174 -> 198 ;
199 [label=<gini = 0.0<br/>samples = 1<br/>value = [0, 0, 0, 0, 0, 0, 0, 0, 0, 0, 0, 0, 0, 0<br/>0, 0, 0, 0, 0, 0, 0, 1, 0]<br/>class = Life, Physical, and Social Science>, fillcolor="#e5394dff"] ;
173 -> 199 ;
200 [label=<FOD1P__Intercultural And International Studies &le; 0.5<br/>gini = 0.5<br/>samples = 2<br/>value = [0, 0, 0, 0, 0, 0, 0, 0, 0, 0, 0, 0, 0, 0<br/>0, 0, 0, 1, 1, 0, 0, 0, 0]<br/>class = Military Specific>, fillcolor="#cb39e500"] ;
172 -> 200 ;
201 [label=<gini = 0.0<br/>samples = 1<br/>value = [0, 0, 0, 0, 0, 0, 0, 0, 0, 0, 0, 0, 0, 0<br/>0, 0, 0, 1, 0, 0, 0, 0, 0]<br/>class = Military Specific>, fillcolor="#cb39e5ff"] ;
200 -> 201 ;
202 [label=<gini = 0.0<br/>samples = 1<br/>value = [0, 0, 0, 0, 0, 0, 0, 0, 0, 0, 0, 0, 0, 0<br/>0, 0, 0, 0, 1, 0, 0, 0, 0]<br/>class = Installation, Maintenance, and Repair>, fillcolor="#e539d4ff"] ;
200 -> 202 ;
203 [label=<gini = 0.0<br/>samples = 2<br/>value = [0, 0, 0, 0, 0, 0, 0, 0, 0, 0, 0, 0, 0, 0<br/>0, 0, 0, 2, 0, 0, 0, 0, 0]<br/>class = Military Specific>, fillcolor="#cb39e5ff"] ;
171 -> 203 ;
204 [label=<FOD1P__Cognitive Science And Biopsychology &le; 0.5<br/>gini = 0.893<br/>samples = 299<br/>value = [1, 13, 1, 27, 12, 11, 2, 17, 6, 8, 9, 5, 5<br/>7, 3, 62, 1, 40, 8, 2, 6, 47, 6]<br/>class = Community and Social Service>, fillcolor="#6f39e50f"] ;
170 -> 204 ;
205 [label=<FOD1P__Community And Public Health &le; 0.5<br/>gini = 0.893<br/>samples = 288<br/>value = [1, 13, 1, 26, 11, 10, 2, 17, 6, 8, 8, 5, 5<br/>7, 2, 58, 1, 40, 7, 2, 6, 47, 5]<br/>class = Community and Social Service>, fillcolor="#6f39e50c"] ;
204 -> 205 ;
206 [label=<FOD1P__Educational Administration And Supervision &le; 0.5<br/>gini = 0.891<br/>samples = 254<br/>value = [1, 13, 1, 24, 8, 10, 2, 15, 6, 8, 3, 3, 5, 6<br/>2, 52, 1, 35, 7, 1, 6, 41, 4]<br/>class = Community and Social Service>, fillcolor="#6f39e50d"] ;
205 -> 206 ;
207 [label=<FOD1P__Teacher Education: Multiple Levels &le; 0.5<br/>gini = 0.891<br/>samples = 253<br/>value = [1, 13, 1, 23, 8, 10, 2, 15, 6, 8, 3, 3, 5, 6<br/>2, 52, 1, 35, 7, 1, 6, 41, 4]<br/>class = Community and Social Service>, fillcolor="#6f39e50d"] ;
206 -> 207 ;
208 [label=<FOD1P__Educational Psychology &le; 0.5<br/>gini = 0.891<br/>samples = 252<br/>value = [1, 13, 1, 22, 8, 10, 2, 15, 6, 8, 3, 3, 5, 6<br/>2, 52, 1, 35, 7, 1, 6, 41, 4]<br/>class = Community and Social Service>, fillcolor="#6f39e50d"] ;
207 -> 208 ;
209 [label=<FOD1P__Counseling Psychology &le; 0.5<br/>gini = 0.89<br/>samples = 250<br/>value = [1, 13, 1, 21, 8, 10, 2, 14, 6, 8, 3, 3, 5, 6<br/>2, 52, 1, 35, 7, 1, 6, 41, 4]<br/>class = Community and Social Service>, fillcolor="#6f39e50d"] ;
208 -> 209 ;
210 [label=<FOD1P__Science And Computer Teacher Education &le; 0.5<br/>gini = 0.889<br/>samples = 247<br/>value = [1, 13, 1, 21, 7, 10, 2, 13, 6, 8, 3, 3, 5, 6<br/>2, 52, 1, 34, 7, 1, 6, 41, 4]<br/>class = Community and Social Service>, fillcolor="#6f39e50e"] ;
209 -> 210 ;
211 [label=<FOD1P__Astronomy And Astrophysics &le; 0.5<br/>gini = 0.889<br/>samples = 245<br/>value = [1, 13, 1, 21, 7, 10, 2, 12, 6, 8, 3, 3, 5, 6<br/>2, 52, 1, 33, 7, 1, 6, 41, 4]<br/>class = Community and Social Service>, fillcolor="#6f39e50e"] ;
210 -> 211 ;
212 [label=<FOD1P__Other Foreign Languages &le; 0.5<br/>gini = 0.888<br/>samples = 241<br/>value = [1, 13, 1, 21, 7, 10, 2, 11, 6, 8, 3, 3, 4, 6<br/>2, 51, 1, 33, 6, 1, 6, 41, 4]<br/>class = Community and Social Service>, fillcolor="#6f39e50d"] ;
211 -> 212 ;
213 [label=<FOD1P__Zoology &le; 0.5<br/>gini = 0.888<br/>samples = 218<br/>value = [0, 13, 1, 21, 7, 8, 2, 8, 6, 7, 2, 3, 4, 6<br/>2, 46, 1, 29, 4, 1, 6, 37, 4]<br/>class = Community and Social Service>, fillcolor="#6f39e50d"] ;
212 -> 213 ;
214 [label=<FOD1P__General Agriculture &le; 0.5<br/>gini = 0.885<br/>samples = 206<br/>value = [0, 13, 1, 21, 7, 7, 2, 7, 6, 6, 2, 2, 4, 6<br/>1, 44, 1, 26, 3, 1, 6, 36, 4]<br/>class = Community and Social Service>, fillcolor="#6f39e50c"] ;
213 -> 214 ;
215 [label=<FOD1P__Court Reporting &le; 0.5<br/>gini = 0.885<br/>samples = 193<br/>value = [0, 12, 1, 21, 7, 7, 1, 7, 4, 5, 2, 2, 4, 6<br/>0, 40, 1, 25, 3, 1, 6, 34, 4]<br/>class = Community and Social Service>, fillcolor="#6f39e50a"] ;
214 -> 215 ;
216 [label=<FOD1P__Mathematics And Computer Science &le; 0.5<br/>gini = 0.886<br/>samples = 192<br/>value = [0, 12, 1, 21, 7, 7, 1, 7, 4, 5, 2, 2, 4, 6<br/>0, 40, 1, 25, 3, 1, 6, 33, 4]<br/>class = Community and Social Service>, fillcolor="#6f39e50b"] ;
215 -> 216 ;
217 [label=<FOD1P__Plant Science And Agronomy &le; 0.5<br/>gini = 0.887<br/>samples = 191<br/>value = [0, 12, 1, 21, 7, 7, 1, 7, 4, 5, 2, 2, 4, 6<br/>0, 39, 1, 25, 3, 1, 6, 33, 4]<br/>class = Community and Social Service>, fillcolor="#6f39e50a"] ;
216 -> 217 ;
218 [label=<FOD1P__Miscellaneous Business & Medical Administration &le; 0.5<br/>gini = 0.883<br/>samples = 177<br/>value = [0, 10, 0, 20, 6, 6, 1, 7, 2, 4, 2, 2, 4, 6<br/>0, 37, 1, 24, 3, 1, 6, 31, 4]<br/>class = Community and Social Service>, fillcolor="#6f39e50a"] ;
217 -> 218 ;
219 [label=<FOD1P__Public Policy &le; 0.5<br/>gini = 0.881<br/>samples = 147<br/>value = [0, 7, 0, 19, 6, 4, 1, 6, 1, 3, 2, 2, 2, 6<br/>0, 30, 1, 20, 1, 1, 6, 26, 3]<br/>class = Community and Social Service>, fillcolor="#6f39e508"] ;
218 -> 219 ;
220 [label=<FOD1P__Public Administration &le; 0.5<br/>gini = 0.878<br/>samples = 139<br/>value = [0, 6, 0, 18, 6, 3, 1, 6, 1, 3, 2, 2, 2, 6<br/>0, 28, 1, 19, 1, 0, 6, 26, 2]<br/>class = Community and Social Service>, fillcolor="#6f39e505"] ;
219 -> 220 ;
221 [label=<FOD1P__Actuarial Science &le; 0.5<br/>gini = 0.872<br/>samples = 122<br/>value = [0, 5, 0, 17, 5, 2, 1, 5, 1, 3, 2, 2, 2, 4<br/>0, 24, 1, 18, 1, 0, 4, 24, 1]<br/>class = Community and Social Service>, fillcolor="#6f39e500"] ;
220 -> 221 ;
222 [label=<FOD1P__Social Psychology &le; 0.5<br/>gini = 0.873<br/>samples = 120<br/>value = [0, 5, 0, 16, 5, 2, 1, 5, 1, 3, 2, 2, 2, 4<br/>0, 24, 1, 18, 1, 0, 4, 23, 1]<br/>class = Community and Social Service>, fillcolor="#6f39e503"] ;
221 -> 222 ;
223 [label=<FOD1P__Operations Logistics And E-Commerce &le; 0.5<br/>gini = 0.875<br/>samples = 118<br/>value = [0, 5, 0, 16, 5, 2, 1, 5, 1, 3, 2, 2, 2, 4<br/>0, 24, 1, 17, 1, 0, 4, 22, 1]<br/>class = Community and Social Service>, fillcolor="#6f39e505"] ;
222 -> 223 ;
224 [label=<FOD1P__Intercultural And International Studies &le; 0.5<br/>gini = 0.876<br/>samples = 105<br/>value = [0, 5, 0, 13, 5, 1, 1, 5, 1, 3, 2, 2, 1, 4<br/>0, 22, 1, 15, 1, 0, 3, 19, 1]<br/>class = Community and Social Service>, fillcolor="#6f39e509"] ;
223 -> 224 ;
225 [label=<FOD1P__Natural Resources Management &le; 0.5<br/>gini = 0.865<br/>samples = 53<br/>value = [0, 3, 0, 7, 1, 0, 1, 3, 1, 1, 1, 1, 1, 2<br/>0, 13, 0, 7, 1, 0, 1, 9, 0]<br/>class = Community and Social Service>, fillcolor="#6f39e517"] ;
224 -> 225 ;
226 [label=<gini = 0.856<br/>samples = 34<br/>value = [0, 2, 0, 5, 0, 0, 0, 2, 0, 0, 1, 1, 0, 2<br/>0, 8, 0, 5, 1, 0, 1, 6, 0]<br/>class = Community and Social Service>, fillcolor="#6f39e512"] ;
225 -> 226 ;
227 [label=<gini = 0.864<br/>samples = 19<br/>value = [0, 1, 0, 2, 1, 0, 1, 1, 1, 1, 0, 0, 1, 0<br/>0, 5, 0, 2, 0, 0, 0, 3, 0]<br/>class = Community and Social Service>, fillcolor="#6f39e520"] ;
225 -> 227 ;
228 [label=<gini = 0.881<br/>samples = 52<br/>value = [0, 2, 0, 6, 4, 1, 0, 2, 0, 2, 1, 1, 0, 2<br/>0, 9, 1, 8, 0, 0, 2, 10, 1]<br/>class = Life, Physical, and Social Science>, fillcolor="#e5394d06"] ;
224 -> 228 ;
229 [label=<gini = 0.828<br/>samples = 13<br/>value = [0, 0, 0, 3, 0, 1, 0, 0, 0, 0, 0, 0, 1, 0<br/>0, 2, 0, 2, 0, 0, 1, 3, 0]<br/>class = Office and Administrative Support>, fillcolor="#c5e53900"] ;
223 -> 229 ;
230 [label=<gini = 0.5<br/>samples = 2<br/>value = [0, 0, 0, 0, 0, 0, 0, 0, 0, 0, 0, 0, 0, 0<br/>0, 0, 0, 1, 0, 0, 0, 1, 0]<br/>class = Military Specific>, fillcolor="#cb39e500"] ;
222 -> 230 ;
231 [label=<gini = 0.5<br/>samples = 2<br/>value = [0, 0, 0, 1, 0, 0, 0, 0, 0, 0, 0, 0, 0, 0<br/>0, 0, 0, 0, 0, 0, 0, 1, 0]<br/>class = Office and Administrative Support>, fillcolor="#c5e53900"] ;
221 -> 231 ;
232 [label=<gini = 0.879<br/>samples = 17<br/>value = [0, 1, 0, 1, 1, 1, 0, 1, 0, 0, 0, 0, 0, 2<br/>0, 4, 0, 1, 0, 0, 2, 2, 1]<br/>class = Community and Social Service>, fillcolor="#6f39e522"] ;
220 -> 232 ;
233 [label=<gini = 0.844<br/>samples = 8<br/>value = [0, 1, 0, 1, 0, 1, 0, 0, 0, 0, 0, 0, 0, 0<br/>0, 2, 0, 1, 0, 1, 0, 0, 1]<br/>class = Community and Social Service>, fillcolor="#6f39e524"] ;
219 -> 233 ;
234 [label=<gini = 0.871<br/>samples = 30<br/>value = [0, 3, 0, 1, 0, 2, 0, 1, 1, 1, 0, 0, 2, 0<br/>0, 7, 0, 4, 2, 0, 0, 5, 1]<br/>class = Community and Social Service>, fillcolor="#6f39e514"] ;
218 -> 234 ;
235 [label=<gini = 0.888<br/>samples = 14<br/>value = [0, 2, 1, 1, 1, 1, 0, 0, 2, 1, 0, 0, 0, 0<br/>0, 2, 0, 1, 0, 0, 0, 2, 0]<br/>class = Business and Financial Operations>, fillcolor="#e5ac3900"] ;
217 -> 235 ;
236 [label=<gini = 0.0<br/>samples = 1<br/>value = [0, 0, 0, 0, 0, 0, 0, 0, 0, 0, 0, 0, 0, 0<br/>0, 1, 0, 0, 0, 0, 0, 0, 0]<br/>class = Community and Social Service>, fillcolor="#6f39e5ff"] ;
216 -> 236 ;
237 [label=<gini = 0.0<br/>samples = 1<br/>value = [0, 0, 0, 0, 0, 0, 0, 0, 0, 0, 0, 0, 0, 0<br/>0, 0, 0, 0, 0, 0, 0, 1, 0]<br/>class = Life, Physical, and Social Science>, fillcolor="#e5394dff"] ;
215 -> 237 ;
238 [label=<gini = 0.828<br/>samples = 13<br/>value = [0, 1, 0, 0, 0, 0, 1, 0, 2, 1, 0, 0, 0, 0<br/>1, 4, 0, 1, 0, 0, 0, 2, 0]<br/>class = Community and Social Service>, fillcolor="#6f39e52e"] ;
214 -> 238 ;
239 [label=<gini = 0.861<br/>samples = 12<br/>value = [0, 0, 0, 0, 0, 1, 0, 1, 0, 1, 0, 1, 0, 0<br/>1, 2, 0, 3, 1, 0, 0, 1, 0]<br/>class = Military Specific>, fillcolor="#cb39e51a"] ;
213 -> 239 ;
240 [label=<gini = 0.854<br/>samples = 23<br/>value = [1, 0, 0, 0, 0, 2, 0, 3, 0, 1, 1, 0, 0, 0<br/>0, 5, 0, 4, 2, 0, 0, 4, 0]<br/>class = Community and Social Service>, fillcolor="#6f39e50d"] ;
212 -> 240 ;
241 [label=<gini = 0.75<br/>samples = 4<br/>value = [0, 0, 0, 0, 0, 0, 0, 1, 0, 0, 0, 0, 1, 0<br/>0, 1, 0, 0, 1, 0, 0, 0, 0]<br/>class = Sales and Related>, fillcolor="#39e56100"] ;
211 -> 241 ;
242 [label=<gini = 0.5<br/>samples = 2<br/>value = [0, 0, 0, 0, 0, 0, 0, 1, 0, 0, 0, 0, 0, 0<br/>0, 0, 0, 1, 0, 0, 0, 0, 0]<br/>class = Sales and Related>, fillcolor="#39e56100"] ;
210 -> 242 ;
243 [label=<gini = 0.667<br/>samples = 3<br/>value = [0, 0, 0, 0, 1, 0, 0, 1, 0, 0, 0, 0, 0, 0<br/>0, 0, 0, 1, 0, 0, 0, 0, 0]<br/>class = Healthcare Practitioners and Technical>, fillcolor="#98e53900"] ;
209 -> 243 ;
244 [label=<gini = 0.5<br/>samples = 2<br/>value = [0, 0, 0, 1, 0, 0, 0, 1, 0, 0, 0, 0, 0, 0<br/>0, 0, 0, 0, 0, 0, 0, 0, 0]<br/>class = Office and Administrative Support>, fillcolor="#c5e53900"] ;
208 -> 244 ;
245 [label=<gini = 0.0<br/>samples = 1<br/>value = [0, 0, 0, 1, 0, 0, 0, 0, 0, 0, 0, 0, 0, 0<br/>0, 0, 0, 0, 0, 0, 0, 0, 0]<br/>class = Office and Administrative Support>, fillcolor="#c5e539ff"] ;
207 -> 245 ;
246 [label=<gini = 0.0<br/>samples = 1<br/>value = [0, 0, 0, 1, 0, 0, 0, 0, 0, 0, 0, 0, 0, 0<br/>0, 0, 0, 0, 0, 0, 0, 0, 0]<br/>class = Office and Administrative Support>, fillcolor="#c5e539ff"] ;
206 -> 246 ;
247 [label=<gini = 0.874<br/>samples = 34<br/>value = [0, 0, 0, 2, 3, 0, 0, 2, 0, 0, 5, 2, 0, 1<br/>0, 6, 0, 5, 0, 1, 0, 6, 1]<br/>class = Community and Social Service>, fillcolor="#6f39e500"] ;
205 -> 247 ;
248 [label=<gini = 0.81<br/>samples = 11<br/>value = [0, 0, 0, 1, 1, 1, 0, 0, 0, 0, 1, 0, 0, 0<br/>1, 4, 0, 0, 1, 0, 0, 0, 1]<br/>class = Community and Social Service>, fillcolor="#6f39e54c"] ;
204 -> 248 ;
249 [label=<FOD2P__No major &le; 0.5<br/>gini = 0.89<br/>samples = 20<br/>value = [1, 1, 0, 1, 0, 0, 0, 3, 0, 1, 1, 0, 0, 0<br/>2, 4, 0, 2, 2, 1, 0, 1, 0]<br/>class = Community and Social Service>, fillcolor="#6f39e50f"] ;
169 -> 249 ;
250 [label=<gini = 0.844<br/>samples = 8<br/>value = [1, 0, 0, 1, 0, 0, 0, 2, 0, 0, 0, 0, 0, 0<br/>0, 1, 0, 0, 1, 1, 0, 1, 0]<br/>class = Sales and Related>, fillcolor="#39e56124"] ;
249 -> 250 ;
251 [label=<gini = 0.847<br/>samples = 12<br/>value = [0, 1, 0, 0, 0, 0, 0, 1, 0, 1, 1, 0, 0, 0<br/>2, 3, 0, 2, 1, 0, 0, 0, 0]<br/>class = Community and Social Service>, fillcolor="#6f39e51a"] ;
249 -> 251 ;
252 [label=<gini = 0.75<br/>samples = 4<br/>value = [0, 0, 0, 0, 0, 0, 0, 1, 0, 1, 0, 0, 0, 0<br/>0, 0, 0, 0, 0, 0, 0, 1, 1]<br/>class = Sales and Related>, fillcolor="#39e56100"] ;
168 -> 252 ;
253 [label=<FOD2P__No major &le; 0.5<br/>gini = 0.667<br/>samples = 3<br/>value = [0, 0, 1, 0, 0, 1, 0, 0, 0, 0, 0, 0, 0, 0<br/>0, 0, 0, 0, 0, 0, 0, 1, 0]<br/>class = Personal Care and Service>, fillcolor="#e5da3900"] ;
167 -> 253 ;
254 [label=<gini = 0.0<br/>samples = 1<br/>value = [0, 0, 0, 0, 0, 0, 0, 0, 0, 0, 0, 0, 0, 0<br/>0, 0, 0, 0, 0, 0, 0, 1, 0]<br/>class = Life, Physical, and Social Science>, fillcolor="#e5394dff"] ;
253 -> 254 ;
255 [label=<gini = 0.5<br/>samples = 2<br/>value = [0, 0, 1, 0, 0, 1, 0, 0, 0, 0, 0, 0, 0, 0<br/>0, 0, 0, 0, 0, 0, 0, 0, 0]<br/>class = Personal Care and Service>, fillcolor="#e5da3900"] ;
253 -> 255 ;
256 [label=<FOD2P__General Engineering &le; 0.5<br/>gini = 0.8<br/>samples = 5<br/>value = [0, 0, 0, 1, 0, 0, 0, 0, 0, 0, 1, 0, 0, 0<br/>1, 0, 0, 0, 0, 1, 0, 1, 0]<br/>class = Office and Administrative Support>, fillcolor="#c5e53900"] ;
166 -> 256 ;
257 [label=<FOD2P__Nutrition Sciences &le; 0.5<br/>gini = 0.75<br/>samples = 4<br/>value = [0, 0, 0, 1, 0, 0, 0, 0, 0, 0, 1, 0, 0, 0<br/>1, 0, 0, 0, 0, 1, 0, 0, 0]<br/>class = Office and Administrative Support>, fillcolor="#c5e53900"] ;
256 -> 257 ;
258 [label=<gini = 0.667<br/>samples = 3<br/>value = [0, 0, 0, 0, 0, 0, 0, 0, 0, 0, 1, 0, 0, 0<br/>1, 0, 0, 0, 0, 1, 0, 0, 0]<br/>class = Building and Grounds Cleaning and Maintenance>, fillcolor="#39e2e500"] ;
257 -> 258 ;
259 [label=<gini = 0.0<br/>samples = 1<br/>value = [0, 0, 0, 1, 0, 0, 0, 0, 0, 0, 0, 0, 0, 0<br/>0, 0, 0, 0, 0, 0, 0, 0, 0]<br/>class = Office and Administrative Support>, fillcolor="#c5e539ff"] ;
257 -> 259 ;
260 [label=<gini = 0.0<br/>samples = 1<br/>value = [0, 0, 0, 0, 0, 0, 0, 0, 0, 0, 0, 0, 0, 0<br/>0, 0, 0, 0, 0, 0, 0, 1, 0]<br/>class = Life, Physical, and Social Science>, fillcolor="#e5394dff"] ;
256 -> 260 ;
261 [label=<FOD2P__Area Ethnic And Civilization Studies &le; 0.5<br/>gini = 0.867<br/>samples = 26<br/>value = [0, 0, 0, 6, 0, 1, 0, 2, 0, 1, 1, 0, 0, 3<br/>0, 4, 0, 2, 1, 0, 1, 4, 0]<br/>class = Office and Administrative Support>, fillcolor="#c5e53917"] ;
165 -> 261 ;
262 [label=<gini = 0.858<br/>samples = 25<br/>value = [0, 0, 0, 6, 0, 1, 0, 2, 0, 1, 1, 0, 0, 3<br/>0, 4, 0, 2, 0, 0, 1, 4, 0]<br/>class = Office and Administrative Support>, fillcolor="#c5e53918"] ;
261 -> 262 ;
263 [label=<gini = 0.0<br/>samples = 1<br/>value = [0, 0, 0, 0, 0, 0, 0, 0, 0, 0, 0, 0, 0, 0<br/>0, 0, 0, 0, 1, 0, 0, 0, 0]<br/>class = Installation, Maintenance, and Repair>, fillcolor="#e539d4ff"] ;
261 -> 263 ;
264 [label=<gini = 0.667<br/>samples = 3<br/>value = [1, 0, 0, 0, 0, 0, 0, 0, 0, 0, 0, 0, 0, 0<br/>0, 0, 0, 1, 0, 1, 0, 0, 0]<br/>class = Architecture and Engineering>, fillcolor="#e5813900"] ;
164 -> 264 ;
265 [label=<gini = 0.0<br/>samples = 1<br/>value = [0, 1, 0, 0, 0, 0, 0, 0, 0, 0, 0, 0, 0, 0<br/>0, 0, 0, 0, 0, 0, 0, 0, 0]<br/>class = Business and Financial Operations>, fillcolor="#e5ac39ff"] ;
163 -> 265 ;
266 [label=<gini = 0.0<br/>samples = 1<br/>value = [0, 1, 0, 0, 0, 0, 0, 0, 0, 0, 0, 0, 0, 0<br/>0, 0, 0, 0, 0, 0, 0, 0, 0]<br/>class = Business and Financial Operations>, fillcolor="#e5ac39ff"] ;
162 -> 266 ;
267 [label=<gini = 0.0<br/>samples = 1<br/>value = [0, 1, 0, 0, 0, 0, 0, 0, 0, 0, 0, 0, 0, 0<br/>0, 0, 0, 0, 0, 0, 0, 0, 0]<br/>class = Business and Financial Operations>, fillcolor="#e5ac39ff"] ;
161 -> 267 ;
268 [label=<gini = 0.0<br/>samples = 1<br/>value = [0, 1, 0, 0, 0, 0, 0, 0, 0, 0, 0, 0, 0, 0<br/>0, 0, 0, 0, 0, 0, 0, 0, 0]<br/>class = Business and Financial Operations>, fillcolor="#e5ac39ff"] ;
160 -> 268 ;
269 [label=<gini = 0.5<br/>samples = 2<br/>value = [0, 0, 0, 0, 0, 0, 0, 1, 0, 0, 0, 0, 0, 0<br/>0, 0, 0, 0, 1, 0, 0, 0, 0]<br/>class = Sales and Related>, fillcolor="#39e56100"] ;
159 -> 269 ;
270 [label=<gini = 0.0<br/>samples = 1<br/>value = [0, 0, 0, 0, 0, 1, 0, 0, 0, 0, 0, 0, 0, 0<br/>0, 0, 0, 0, 0, 0, 0, 0, 0]<br/>class = Management>, fillcolor="#6ae539ff"] ;
158 -> 270 ;
271 [label=<FOD1P__Pre-Law And Legal Studies &le; 0.5<br/>gini = 0.72<br/>samples = 5<br/>value = [0, 0, 0, 1, 0, 2, 0, 1, 0, 0, 0, 0, 0, 0<br/>0, 1, 0, 0, 0, 0, 0, 0, 0]<br/>class = Management>, fillcolor="#6ae53940"] ;
157 -> 271 ;
272 [label=<FOD1P__Zoology &le; 0.5<br/>gini = 0.625<br/>samples = 4<br/>value = [0, 0, 0, 1, 0, 2, 0, 1, 0, 0, 0, 0, 0, 0<br/>0, 0, 0, 0, 0, 0, 0, 0, 0]<br/>class = Management>, fillcolor="#6ae53955"] ;
271 -> 272 ;
273 [label=<FOD1P__International Relations &le; 0.5<br/>gini = 0.444<br/>samples = 3<br/>value = [0, 0, 0, 1, 0, 2, 0, 0, 0, 0, 0, 0, 0, 0<br/>0, 0, 0, 0, 0, 0, 0, 0, 0]<br/>class = Management>, fillcolor="#6ae5397f"] ;
272 -> 273 ;
274 [label=<gini = 0.0<br/>samples = 1<br/>value = [0, 0, 0, 0, 0, 1, 0, 0, 0, 0, 0, 0, 0, 0<br/>0, 0, 0, 0, 0, 0, 0, 0, 0]<br/>class = Management>, fillcolor="#6ae539ff"] ;
273 -> 274 ;
275 [label=<gini = 0.5<br/>samples = 2<br/>value = [0, 0, 0, 1, 0, 1, 0, 0, 0, 0, 0, 0, 0, 0<br/>0, 0, 0, 0, 0, 0, 0, 0, 0]<br/>class = Office and Administrative Support>, fillcolor="#c5e53900"] ;
273 -> 275 ;
276 [label=<gini = 0.0<br/>samples = 1<br/>value = [0, 0, 0, 0, 0, 0, 0, 1, 0, 0, 0, 0, 0, 0<br/>0, 0, 0, 0, 0, 0, 0, 0, 0]<br/>class = Sales and Related>, fillcolor="#39e561ff"] ;
272 -> 276 ;
277 [label=<gini = 0.0<br/>samples = 1<br/>value = [0, 0, 0, 0, 0, 0, 0, 0, 0, 0, 0, 0, 0, 0<br/>0, 1, 0, 0, 0, 0, 0, 0, 0]<br/>class = Community and Social Service>, fillcolor="#6f39e5ff"] ;
271 -> 277 ;
278 [label=<gini = 0.0<br/>samples = 1<br/>value = [0, 0, 0, 0, 0, 0, 0, 0, 0, 0, 0, 0, 0, 0<br/>0, 0, 0, 0, 1, 0, 0, 0, 0]<br/>class = Installation, Maintenance, and Repair>, fillcolor="#e539d4ff"] ;
156 -> 278 ;
279 [label=<gini = 0.0<br/>samples = 1<br/>value = [0, 0, 0, 0, 0, 0, 0, 0, 0, 0, 0, 0, 0, 0<br/>0, 0, 0, 0, 1, 0, 0, 0, 0]<br/>class = Installation, Maintenance, and Repair>, fillcolor="#e539d4ff"] ;
155 -> 279 ;
280 [label=<gini = 0.0<br/>samples = 1<br/>value = [0, 0, 0, 0, 0, 0, 0, 0, 0, 1, 0, 0, 0, 0<br/>0, 0, 0, 0, 0, 0, 0, 0, 0]<br/>class = Healthcare Support>, fillcolor="#39e5baff"] ;
154 -> 280 ;
281 [label=<gini = 0.0<br/>samples = 1<br/>value = [0, 0, 0, 0, 0, 0, 0, 0, 0, 1, 0, 0, 0, 0<br/>0, 0, 0, 0, 0, 0, 0, 0, 0]<br/>class = Healthcare Support>, fillcolor="#39e5baff"] ;
153 -> 281 ;
282 [label=<FOD2P__Music &le; 0.5<br/>gini = 0.84<br/>samples = 9<br/>value = [0, 1, 0, 0, 0, 2, 0, 1, 0, 1, 0, 0, 0, 0<br/>0, 0, 0, 2, 0, 1, 0, 1, 0]<br/>class = Management>, fillcolor="#6ae53900"] ;
152 -> 282 ;
283 [label=<FOD2P__No major &le; 0.5<br/>gini = 0.844<br/>samples = 8<br/>value = [0, 1, 0, 0, 0, 1, 0, 1, 0, 1, 0, 0, 0, 0<br/>0, 0, 0, 2, 0, 1, 0, 1, 0]<br/>class = Military Specific>, fillcolor="#cb39e524"] ;
282 -> 283 ;
284 [label=<gini = 0.0<br/>samples = 1<br/>value = [0, 0, 0, 0, 0, 0, 0, 0, 0, 0, 0, 0, 0, 0<br/>0, 0, 0, 1, 0, 0, 0, 0, 0]<br/>class = Military Specific>, fillcolor="#cb39e5ff"] ;
283 -> 284 ;
285 [label=<gini = 0.857<br/>samples = 7<br/>value = [0, 1, 0, 0, 0, 1, 0, 1, 0, 1, 0, 0, 0, 0<br/>0, 0, 0, 1, 0, 1, 0, 1, 0]<br/>class = Business and Financial Operations>, fillcolor="#e5ac3900"] ;
283 -> 285 ;
286 [label=<gini = 0.0<br/>samples = 1<br/>value = [0, 0, 0, 0, 0, 1, 0, 0, 0, 0, 0, 0, 0, 0<br/>0, 0, 0, 0, 0, 0, 0, 0, 0]<br/>class = Management>, fillcolor="#6ae539ff"] ;
282 -> 286 ;
287 [label=<FOD2P__Studio Arts &le; 0.5<br/>gini = 0.888<br/>samples = 53<br/>value = [1, 6, 0, 6, 1, 1, 0, 5, 0, 2, 1, 0, 0, 0<br/>1, 7, 0, 11, 2, 3, 1, 5, 0]<br/>class = Military Specific>, fillcolor="#cb39e516"] ;
151 -> 287 ;
288 [label=<FOD2P__Architecture &le; 0.5<br/>gini = 0.873<br/>samples = 47<br/>value = [0, 5, 0, 6, 1, 1, 0, 5, 0, 2, 0, 0, 0, 0<br/>1, 6, 0, 11, 1, 2, 1, 5, 0]<br/>class = Military Specific>, fillcolor="#cb39e51f"] ;
287 -> 288 ;
289 [label=<FOD2P__Fine Arts &le; 0.5<br/>gini = 0.869<br/>samples = 46<br/>value = [0, 5, 0, 6, 1, 1, 0, 5, 0, 2, 0, 0, 0, 0<br/>1, 6, 0, 11, 1, 1, 1, 5, 0]<br/>class = Military Specific>, fillcolor="#cb39e520"] ;
288 -> 289 ;
290 [label=<FOD2P__French German Latin And Other Common Foreign Language Studies &le; 0.5<br/>gini = 0.867<br/>samples = 45<br/>value = [0, 4, 0, 6, 1, 1, 0, 5, 0, 2, 0, 0, 0, 0<br/>1, 6, 0, 11, 1, 1, 1, 5, 0]<br/>class = Military Specific>, fillcolor="#cb39e521"] ;
289 -> 290 ;
291 [label=<FOD2P__Drama And Theater Arts &le; 0.5<br/>gini = 0.866<br/>samples = 44<br/>value = [0, 4, 0, 6, 1, 1, 0, 4, 0, 2, 0, 0, 0, 0<br/>1, 6, 0, 11, 1, 1, 1, 5, 0]<br/>class = Military Specific>, fillcolor="#cb39e522"] ;
290 -> 291 ;
292 [label=<FOD2P__Visual And Performing Arts &le; 0.5<br/>gini = 0.864<br/>samples = 43<br/>value = [0, 4, 0, 6, 1, 1, 0, 4, 0, 2, 0, 0, 0, 0<br/>1, 6, 0, 11, 1, 1, 1, 4, 0]<br/>class = Military Specific>, fillcolor="#cb39e522"] ;
291 -> 292 ;
293 [label=<gini = 0.87<br/>samples = 42<br/>value = [0, 4, 0, 6, 1, 1, 0, 4, 0, 2, 0, 0, 0, 0<br/>1, 6, 0, 10, 1, 1, 1, 4, 0]<br/>class = Military Specific>, fillcolor="#cb39e51c"] ;
292 -> 293 ;
294 [label=<gini = 0.0<br/>samples = 1<br/>value = [0, 0, 0, 0, 0, 0, 0, 0, 0, 0, 0, 0, 0, 0<br/>0, 0, 0, 1, 0, 0, 0, 0, 0]<br/>class = Military Specific>, fillcolor="#cb39e5ff"] ;
292 -> 294 ;
295 [label=<gini = 0.0<br/>samples = 1<br/>value = [0, 0, 0, 0, 0, 0, 0, 0, 0, 0, 0, 0, 0, 0<br/>0, 0, 0, 0, 0, 0, 0, 1, 0]<br/>class = Life, Physical, and Social Science>, fillcolor="#e5394dff"] ;
291 -> 295 ;
296 [label=<gini = 0.0<br/>samples = 1<br/>value = [0, 0, 0, 0, 0, 0, 0, 1, 0, 0, 0, 0, 0, 0<br/>0, 0, 0, 0, 0, 0, 0, 0, 0]<br/>class = Sales and Related>, fillcolor="#39e561ff"] ;
290 -> 296 ;
297 [label=<gini = 0.0<br/>samples = 1<br/>value = [0, 1, 0, 0, 0, 0, 0, 0, 0, 0, 0, 0, 0, 0<br/>0, 0, 0, 0, 0, 0, 0, 0, 0]<br/>class = Business and Financial Operations>, fillcolor="#e5ac39ff"] ;
289 -> 297 ;
298 [label=<gini = 0.0<br/>samples = 1<br/>value = [0, 0, 0, 0, 0, 0, 0, 0, 0, 0, 0, 0, 0, 0<br/>0, 0, 0, 0, 0, 1, 0, 0, 0]<br/>class = Farming, Fishing, and Forestry>, fillcolor="#e539a6ff"] ;
288 -> 298 ;
299 [label=<gini = 0.833<br/>samples = 6<br/>value = [1, 1, 0, 0, 0, 0, 0, 0, 0, 0, 1, 0, 0, 0<br/>0, 1, 0, 0, 1, 1, 0, 0, 0]<br/>class = Architecture and Engineering>, fillcolor="#e5813900"] ;
287 -> 299 ;
300 [label=<gini = 0.72<br/>samples = 5<br/>value = [0, 2, 0, 1, 0, 0, 0, 0, 0, 1, 0, 0, 0, 0<br/>0, 1, 0, 0, 0, 0, 0, 0, 0]<br/>class = Business and Financial Operations>, fillcolor="#e5ac3940"] ;
150 -> 300 ;
301 [label=<gini = 0.0<br/>samples = 1<br/>value = [0, 0, 0, 0, 1, 0, 0, 0, 0, 0, 0, 0, 0, 0<br/>0, 0, 0, 0, 0, 0, 0, 0, 0]<br/>class = Healthcare Practitioners and Technical>, fillcolor="#98e539ff"] ;
149 -> 301 ;
302 [label=<gini = 0.0<br/>samples = 1<br/>value = [0, 0, 0, 0, 1, 0, 0, 0, 0, 0, 0, 0, 0, 0<br/>0, 0, 0, 0, 0, 0, 0, 0, 0]<br/>class = Healthcare Practitioners and Technical>, fillcolor="#98e539ff"] ;
148 -> 302 ;
303 [label=<gini = 0.0<br/>samples = 1<br/>value = [0, 0, 0, 0, 0, 0, 0, 0, 0, 0, 0, 0, 0, 0<br/>0, 0, 0, 0, 0, 1, 0, 0, 0]<br/>class = Farming, Fishing, and Forestry>, fillcolor="#e539a6ff"] ;
147 -> 303 ;
304 [label=<gini = 0.0<br/>samples = 1<br/>value = [0, 0, 0, 0, 0, 0, 0, 0, 0, 0, 0, 0, 0, 0<br/>0, 0, 0, 0, 0, 1, 0, 0, 0]<br/>class = Farming, Fishing, and Forestry>, fillcolor="#e539a6ff"] ;
146 -> 304 ;
305 [label=<gini = 0.0<br/>samples = 1<br/>value = [0, 0, 0, 0, 0, 0, 0, 0, 0, 0, 0, 0, 0, 0<br/>0, 0, 0, 0, 0, 1, 0, 0, 0]<br/>class = Farming, Fishing, and Forestry>, fillcolor="#e539a6ff"] ;
145 -> 305 ;
306 [label=<gini = 0.667<br/>samples = 3<br/>value = [1, 0, 1, 1, 0, 0, 0, 0, 0, 0, 0, 0, 0, 0<br/>0, 0, 0, 0, 0, 0, 0, 0, 0]<br/>class = Architecture and Engineering>, fillcolor="#e5813900"] ;
144 -> 306 ;
307 [label=<gini = 0.0<br/>samples = 1<br/>value = [0, 0, 0, 0, 0, 0, 0, 0, 0, 0, 0, 0, 0, 0<br/>0, 0, 0, 0, 0, 0, 0, 0, 1]<br/>class = Arts, Design, Entertainment, Sports, and Media>, fillcolor="#e55339ff"] ;
143 -> 307 ;
308 [label=<gini = 0.0<br/>samples = 1<br/>value = [0, 0, 0, 0, 0, 0, 0, 0, 0, 0, 0, 0, 0, 0<br/>0, 0, 0, 0, 0, 0, 0, 0, 1]<br/>class = Arts, Design, Entertainment, Sports, and Media>, fillcolor="#e55339ff"] ;
142 -> 308 ;
309 [label=<gini = 0.0<br/>samples = 1<br/>value = [0, 0, 0, 0, 0, 0, 0, 0, 0, 0, 0, 0, 0, 0<br/>0, 0, 0, 0, 0, 0, 0, 0, 1]<br/>class = Arts, Design, Entertainment, Sports, and Media>, fillcolor="#e55339ff"] ;
141 -> 309 ;
310 [label=<FOD2P__No major &le; 0.5<br/>gini = 0.899<br/>samples = 45<br/>value = [1, 6, 0, 5, 0, 0, 0, 4, 0, 2, 4, 0, 1, 2<br/>0, 8, 0, 5, 1, 0, 2, 2, 2]<br/>class = Community and Social Service>, fillcolor="#6f39e50d"] ;
140 -> 310 ;
311 [label=<FOD2P__Business Management And Administration &le; 0.5<br/>gini = 0.5<br/>samples = 4<br/>value = [0, 2, 0, 0, 0, 0, 0, 0, 0, 0, 0, 0, 0, 0<br/>0, 2, 0, 0, 0, 0, 0, 0, 0]<br/>class = Business and Financial Operations>, fillcolor="#e5ac3900"] ;
310 -> 311 ;
312 [label=<FOD2P__Communication Technologies &le; 0.5<br/>gini = 0.444<br/>samples = 3<br/>value = [0, 1, 0, 0, 0, 0, 0, 0, 0, 0, 0, 0, 0, 0<br/>0, 2, 0, 0, 0, 0, 0, 0, 0]<br/>class = Community and Social Service>, fillcolor="#6f39e57f"] ;
311 -> 312 ;
313 [label=<gini = 0.0<br/>samples = 2<br/>value = [0, 0, 0, 0, 0, 0, 0, 0, 0, 0, 0, 0, 0, 0<br/>0, 2, 0, 0, 0, 0, 0, 0, 0]<br/>class = Community and Social Service>, fillcolor="#6f39e5ff"] ;
312 -> 313 ;
314 [label=<gini = 0.0<br/>samples = 1<br/>value = [0, 1, 0, 0, 0, 0, 0, 0, 0, 0, 0, 0, 0, 0<br/>0, 0, 0, 0, 0, 0, 0, 0, 0]<br/>class = Business and Financial Operations>, fillcolor="#e5ac39ff"] ;
312 -> 314 ;
315 [label=<gini = 0.0<br/>samples = 1<br/>value = [0, 1, 0, 0, 0, 0, 0, 0, 0, 0, 0, 0, 0, 0<br/>0, 0, 0, 0, 0, 0, 0, 0, 0]<br/>class = Business and Financial Operations>, fillcolor="#e5ac39ff"] ;
311 -> 315 ;
316 [label=<gini = 0.907<br/>samples = 41<br/>value = [1, 4, 0, 5, 0, 0, 0, 4, 0, 2, 4, 0, 1, 2<br/>0, 6, 0, 5, 1, 0, 2, 2, 2]<br/>class = Community and Social Service>, fillcolor="#6f39e507"] ;
310 -> 316 ;
317 [label=<FOD2P__Interdisciplinary Social Sciences &le; 0.5<br/>gini = 0.72<br/>samples = 5<br/>value = [0, 0, 0, 1, 1, 2, 0, 0, 0, 0, 0, 0, 0, 0<br/>0, 1, 0, 0, 0, 0, 0, 0, 0]<br/>class = Management>, fillcolor="#6ae53940"] ;
139 -> 317 ;
318 [label=<FOD2P__Architecture &le; 0.5<br/>gini = 0.625<br/>samples = 4<br/>value = [0, 0, 0, 0, 1, 2, 0, 0, 0, 0, 0, 0, 0, 0<br/>0, 1, 0, 0, 0, 0, 0, 0, 0]<br/>class = Management>, fillcolor="#6ae53955"] ;
317 -> 318 ;
319 [label=<gini = 0.667<br/>samples = 3<br/>value = [0, 0, 0, 0, 1, 1, 0, 0, 0, 0, 0, 0, 0, 0<br/>0, 1, 0, 0, 0, 0, 0, 0, 0]<br/>class = Healthcare Practitioners and Technical>, fillcolor="#98e53900"] ;
318 -> 319 ;
320 [label=<gini = 0.0<br/>samples = 1<br/>value = [0, 0, 0, 0, 0, 1, 0, 0, 0, 0, 0, 0, 0, 0<br/>0, 0, 0, 0, 0, 0, 0, 0, 0]<br/>class = Management>, fillcolor="#6ae539ff"] ;
318 -> 320 ;
321 [label=<gini = 0.0<br/>samples = 1<br/>value = [0, 0, 0, 1, 0, 0, 0, 0, 0, 0, 0, 0, 0, 0<br/>0, 0, 0, 0, 0, 0, 0, 0, 0]<br/>class = Office and Administrative Support>, fillcolor="#c5e539ff"] ;
317 -> 321 ;
322 [label=<FOD1P__Studio Arts &le; 0.5<br/>gini = 0.667<br/>samples = 6<br/>value = [0, 0, 0, 3, 0, 0, 0, 1, 0, 0, 0, 0, 0, 0<br/>0, 0, 0, 1, 0, 0, 0, 1, 0]<br/>class = Office and Administrative Support>, fillcolor="#c5e53966"] ;
138 -> 322 ;
323 [label=<FOD1P__Miscellaneous Business & Medical Administration &le; 0.5<br/>gini = 0.56<br/>samples = 5<br/>value = [0, 0, 0, 3, 0, 0, 0, 0, 0, 0, 0, 0, 0, 0<br/>0, 0, 0, 1, 0, 0, 0, 1, 0]<br/>class = Office and Administrative Support>, fillcolor="#c5e5397f"] ;
322 -> 323 ;
324 [label=<gini = 0.0<br/>samples = 2<br/>value = [0, 0, 0, 2, 0, 0, 0, 0, 0, 0, 0, 0, 0, 0<br/>0, 0, 0, 0, 0, 0, 0, 0, 0]<br/>class = Office and Administrative Support>, fillcolor="#c5e539ff"] ;
323 -> 324 ;
325 [label=<gini = 0.667<br/>samples = 3<br/>value = [0, 0, 0, 1, 0, 0, 0, 0, 0, 0, 0, 0, 0, 0<br/>0, 0, 0, 1, 0, 0, 0, 1, 0]<br/>class = Office and Administrative Support>, fillcolor="#c5e53900"] ;
323 -> 325 ;
326 [label=<gini = 0.0<br/>samples = 1<br/>value = [0, 0, 0, 0, 0, 0, 0, 1, 0, 0, 0, 0, 0, 0<br/>0, 0, 0, 0, 0, 0, 0, 0, 0]<br/>class = Sales and Related>, fillcolor="#39e561ff"] ;
322 -> 326 ;
327 [label=<FOD2P__Mechanical Engineering &le; 0.5<br/>gini = 0.906<br/>samples = 95<br/>value = [3, 10, 0, 9, 3, 7, 1, 12, 0, 3, 3, 0, 0, 3<br/>0, 15, 0, 11, 1, 0, 2, 7, 5]<br/>class = Community and Social Service>, fillcolor="#6f39e509"] ;
137 -> 327 ;
328 [label=<FOD2P__Philosophy And Religious Studies &le; 0.5<br/>gini = 0.905<br/>samples = 94<br/>value = [3, 10, 0, 9, 3, 7, 1, 12, 0, 3, 3, 0, 0, 3<br/>0, 15, 0, 11, 1, 0, 2, 7, 4]<br/>class = Community and Social Service>, fillcolor="#6f39e509"] ;
327 -> 328 ;
329 [label=<FOD2P__Theology And Religious Vocations &le; 0.5<br/>gini = 0.904<br/>samples = 93<br/>value = [3, 10, 0, 9, 3, 7, 1, 12, 0, 3, 3, 0, 0, 3<br/>0, 15, 0, 11, 1, 0, 2, 7, 3]<br/>class = Community and Social Service>, fillcolor="#6f39e509"] ;
328 -> 329 ;
330 [label=<FOD2P__General Business &le; 0.5<br/>gini = 0.904<br/>samples = 92<br/>value = [3, 9, 0, 9, 3, 7, 1, 12, 0, 3, 3, 0, 0, 3<br/>0, 15, 0, 11, 1, 0, 2, 7, 3]<br/>class = Community and Social Service>, fillcolor="#6f39e50a"] ;
329 -> 330 ;
331 [label=<FOD2P__Interdisciplinary Social Sciences &le; 0.5<br/>gini = 0.905<br/>samples = 91<br/>value = [3, 9, 0, 9, 3, 7, 1, 12, 0, 3, 3, 0, 0, 3<br/>0, 15, 0, 10, 1, 0, 2, 7, 3]<br/>class = Community and Social Service>, fillcolor="#6f39e50a"] ;
330 -> 331 ;
332 [label=<FOD2P__No major &le; 0.5<br/>gini = 0.905<br/>samples = 90<br/>value = [3, 9, 0, 9, 3, 7, 1, 11, 0, 3, 3, 0, 0, 3<br/>0, 15, 0, 10, 1, 0, 2, 7, 3]<br/>class = Community and Social Service>, fillcolor="#6f39e50d"] ;
331 -> 332 ;
333 [label=<FOD2P__Psychology &le; 0.5<br/>gini = 0.625<br/>samples = 4<br/>value = [0, 0, 0, 0, 0, 0, 0, 0, 0, 0, 0, 0, 0, 0<br/>0, 2, 0, 1, 0, 0, 0, 1, 0]<br/>class = Community and Social Service>, fillcolor="#6f39e555"] ;
332 -> 333 ;
334 [label=<gini = 0.0<br/>samples = 2<br/>value = [0, 0, 0, 0, 0, 0, 0, 0, 0, 0, 0, 0, 0, 0<br/>0, 2, 0, 0, 0, 0, 0, 0, 0]<br/>class = Community and Social Service>, fillcolor="#6f39e5ff"] ;
333 -> 334 ;
335 [label=<gini = 0.5<br/>samples = 2<br/>value = [0, 0, 0, 0, 0, 0, 0, 0, 0, 0, 0, 0, 0, 0<br/>0, 0, 0, 1, 0, 0, 0, 1, 0]<br/>class = Military Specific>, fillcolor="#cb39e500"] ;
333 -> 335 ;
336 [label=<gini = 0.908<br/>samples = 86<br/>value = [3, 9, 0, 9, 3, 7, 1, 11, 0, 3, 3, 0, 0, 3<br/>0, 13, 0, 9, 1, 0, 2, 6, 3]<br/>class = Community and Social Service>, fillcolor="#6f39e507"] ;
332 -> 336 ;
337 [label=<gini = 0.0<br/>samples = 1<br/>value = [0, 0, 0, 0, 0, 0, 0, 1, 0, 0, 0, 0, 0, 0<br/>0, 0, 0, 0, 0, 0, 0, 0, 0]<br/>class = Sales and Related>, fillcolor="#39e561ff"] ;
331 -> 337 ;
338 [label=<gini = 0.0<br/>samples = 1<br/>value = [0, 0, 0, 0, 0, 0, 0, 0, 0, 0, 0, 0, 0, 0<br/>0, 0, 0, 1, 0, 0, 0, 0, 0]<br/>class = Military Specific>, fillcolor="#cb39e5ff"] ;
330 -> 338 ;
339 [label=<gini = 0.0<br/>samples = 1<br/>value = [0, 1, 0, 0, 0, 0, 0, 0, 0, 0, 0, 0, 0, 0<br/>0, 0, 0, 0, 0, 0, 0, 0, 0]<br/>class = Business and Financial Operations>, fillcolor="#e5ac39ff"] ;
329 -> 339 ;
340 [label=<gini = 0.0<br/>samples = 1<br/>value = [0, 0, 0, 0, 0, 0, 0, 0, 0, 0, 0, 0, 0, 0<br/>0, 0, 0, 0, 0, 0, 0, 0, 1]<br/>class = Arts, Design, Entertainment, Sports, and Media>, fillcolor="#e55339ff"] ;
328 -> 340 ;
341 [label=<gini = 0.0<br/>samples = 1<br/>value = [0, 0, 0, 0, 0, 0, 0, 0, 0, 0, 0, 0, 0, 0<br/>0, 0, 0, 0, 0, 0, 0, 0, 1]<br/>class = Arts, Design, Entertainment, Sports, and Media>, fillcolor="#e55339ff"] ;
327 -> 341 ;
342 [label=<FOD2P__Community And Public Health &le; 0.5<br/>gini = 0.901<br/>samples = 34<br/>value = [2, 2, 0, 4, 0, 4, 0, 2, 0, 0, 5, 0, 0, 0<br/>1, 5, 0, 2, 2, 1, 1, 3, 0]<br/>class = Building and Grounds Cleaning and Maintenance>, fillcolor="#39e2e500"] ;
136 -> 342 ;
343 [label=<FOD2P__French German Latin And Other Common Foreign Language Studies &le; 0.5<br/>gini = 0.898<br/>samples = 33<br/>value = [2, 2, 0, 4, 0, 4, 0, 1, 0, 0, 5, 0, 0, 0<br/>1, 5, 0, 2, 2, 1, 1, 3, 0]<br/>class = Building and Grounds Cleaning and Maintenance>, fillcolor="#39e2e500"] ;
342 -> 343 ;
344 [label=<FOD2P__No major &le; 0.5<br/>gini = 0.896<br/>samples = 32<br/>value = [2, 2, 0, 4, 0, 4, 0, 1, 0, 0, 5, 0, 0, 0<br/>1, 5, 0, 2, 2, 1, 1, 2, 0]<br/>class = Building and Grounds Cleaning and Maintenance>, fillcolor="#39e2e500"] ;
343 -> 344 ;
345 [label=<FOD2P__Mathematics &le; 0.5<br/>gini = 0.75<br/>samples = 8<br/>value = [0, 0, 0, 0, 0, 2, 0, 0, 0, 0, 2, 0, 0, 0<br/>0, 2, 0, 0, 2, 0, 0, 0, 0]<br/>class = Management>, fillcolor="#6ae53900"] ;
344 -> 345 ;
346 [label=<FOD2P__Interdisciplinary Social Sciences &le; 0.5<br/>gini = 0.735<br/>samples = 7<br/>value = [0, 0, 0, 0, 0, 1, 0, 0, 0, 0, 2, 0, 0, 0<br/>0, 2, 0, 0, 2, 0, 0, 0, 0]<br/>class = Building and Grounds Cleaning and Maintenance>, fillcolor="#39e2e500"] ;
345 -> 346 ;
347 [label=<FOD2P__Physiology &le; 0.5<br/>gini = 0.625<br/>samples = 4<br/>value = [0, 0, 0, 0, 0, 0, 0, 0, 0, 0, 2, 0, 0, 0<br/>0, 1, 0, 0, 1, 0, 0, 0, 0]<br/>class = Building and Grounds Cleaning and Maintenance>, fillcolor="#39e2e555"] ;
346 -> 347 ;
348 [label=<gini = 0.5<br/>samples = 2<br/>value = [0, 0, 0, 0, 0, 0, 0, 0, 0, 0, 1, 0, 0, 0<br/>0, 0, 0, 0, 1, 0, 0, 0, 0]<br/>class = Building and Grounds Cleaning and Maintenance>, fillcolor="#39e2e500"] ;
347 -> 348 ;
349 [label=<gini = 0.5<br/>samples = 2<br/>value = [0, 0, 0, 0, 0, 0, 0, 0, 0, 0, 1, 0, 0, 0<br/>0, 1, 0, 0, 0, 0, 0, 0, 0]<br/>class = Building and Grounds Cleaning and Maintenance>, fillcolor="#39e2e500"] ;
347 -> 349 ;
350 [label=<gini = 0.667<br/>samples = 3<br/>value = [0, 0, 0, 0, 0, 1, 0, 0, 0, 0, 0, 0, 0, 0<br/>0, 1, 0, 0, 1, 0, 0, 0, 0]<br/>class = Management>, fillcolor="#6ae53900"] ;
346 -> 350 ;
351 [label=<gini = 0.0<br/>samples = 1<br/>value = [0, 0, 0, 0, 0, 1, 0, 0, 0, 0, 0, 0, 0, 0<br/>0, 0, 0, 0, 0, 0, 0, 0, 0]<br/>class = Management>, fillcolor="#6ae539ff"] ;
345 -> 351 ;
352 [label=<gini = 0.899<br/>samples = 24<br/>value = [2, 2, 0, 4, 0, 2, 0, 1, 0, 0, 3, 0, 0, 0<br/>1, 3, 0, 2, 0, 1, 1, 2, 0]<br/>class = Office and Administrative Support>, fillcolor="#c5e5390c"] ;
344 -> 352 ;
353 [label=<gini = 0.0<br/>samples = 1<br/>value = [0, 0, 0, 0, 0, 0, 0, 0, 0, 0, 0, 0, 0, 0<br/>0, 0, 0, 0, 0, 0, 0, 1, 0]<br/>class = Life, Physical, and Social Science>, fillcolor="#e5394dff"] ;
343 -> 353 ;
354 [label=<gini = 0.0<br/>samples = 1<br/>value = [0, 0, 0, 0, 0, 0, 0, 1, 0, 0, 0, 0, 0, 0<br/>0, 0, 0, 0, 0, 0, 0, 0, 0]<br/>class = Sales and Related>, fillcolor="#39e561ff"] ;
342 -> 354 ;
355 [label=<gini = 0.0<br/>samples = 1<br/>value = [0, 0, 0, 0, 0, 0, 0, 0, 0, 0, 0, 0, 0, 0<br/>1, 0, 0, 0, 0, 0, 0, 0, 0]<br/>class = Construction and Extraction>, fillcolor="#4439e5ff"] ;
135 -> 355 ;
356 [label=<FOD2P__Electrical, Mechanical, And Precision Technologies And Production &le; 0.5<br/>gini = 0.816<br/>samples = 7<br/>value = [0, 0, 0, 1, 1, 1, 0, 0, 0, 0, 0, 0, 1, 2<br/>0, 1, 0, 0, 0, 0, 0, 0, 0]<br/>class = Legal>, fillcolor="#395be52a"] ;
134 -> 356 ;
357 [label=<FOD2P__Family And Consumer Sciences &le; 0.5<br/>gini = 0.778<br/>samples = 6<br/>value = [0, 0, 0, 1, 1, 1, 0, 0, 0, 0, 0, 0, 0, 2<br/>0, 1, 0, 0, 0, 0, 0, 0, 0]<br/>class = Legal>, fillcolor="#395be533"] ;
356 -> 357 ;
358 [label=<FOD2P__No major &le; 0.5<br/>gini = 0.72<br/>samples = 5<br/>value = [0, 0, 0, 0, 1, 1, 0, 0, 0, 0, 0, 0, 0, 2<br/>0, 1, 0, 0, 0, 0, 0, 0, 0]<br/>class = Legal>, fillcolor="#395be540"] ;
357 -> 358 ;
359 [label=<gini = 0.0<br/>samples = 1<br/>value = [0, 0, 0, 0, 0, 0, 0, 0, 0, 0, 0, 0, 0, 1<br/>0, 0, 0, 0, 0, 0, 0, 0, 0]<br/>class = Legal>, fillcolor="#395be5ff"] ;
358 -> 359 ;
360 [label=<gini = 0.75<br/>samples = 4<br/>value = [0, 0, 0, 0, 1, 1, 0, 0, 0, 0, 0, 0, 0, 1<br/>0, 1, 0, 0, 0, 0, 0, 0, 0]<br/>class = Healthcare Practitioners and Technical>, fillcolor="#98e53900"] ;
358 -> 360 ;
361 [label=<gini = 0.0<br/>samples = 1<br/>value = [0, 0, 0, 1, 0, 0, 0, 0, 0, 0, 0, 0, 0, 0<br/>0, 0, 0, 0, 0, 0, 0, 0, 0]<br/>class = Office and Administrative Support>, fillcolor="#c5e539ff"] ;
357 -> 361 ;
362 [label=<gini = 0.0<br/>samples = 1<br/>value = [0, 0, 0, 0, 0, 0, 0, 0, 0, 0, 0, 0, 1, 0<br/>0, 0, 0, 0, 0, 0, 0, 0, 0]<br/>class = Production>, fillcolor="#3989e5ff"] ;
356 -> 362 ;
363 [label=<gini = 0.667<br/>samples = 3<br/>value = [0, 0, 0, 0, 0, 1, 0, 0, 0, 0, 1, 0, 0, 0<br/>0, 0, 1, 0, 0, 0, 0, 0, 0]<br/>class = Management>, fillcolor="#6ae53900"] ;
133 -> 363 ;
364 [label=<gini = 0.5<br/>samples = 2<br/>value = [0, 0, 0, 0, 0, 0, 0, 0, 0, 0, 1, 1, 0, 0<br/>0, 0, 0, 0, 0, 0, 0, 0, 0]<br/>class = Building and Grounds Cleaning and Maintenance>, fillcolor="#39e2e500"] ;
132 -> 364 ;
365 [label=<gini = 0.625<br/>samples = 4<br/>value = [0, 0, 0, 2, 0, 0, 0, 0, 0, 0, 0, 0, 0, 0<br/>0, 0, 0, 1, 1, 0, 0, 0, 0]<br/>class = Office and Administrative Support>, fillcolor="#c5e53955"] ;
131 -> 365 ;
366 [label=<gini = 0.5<br/>samples = 2<br/>value = [0, 0, 0, 0, 0, 0, 0, 0, 1, 0, 0, 0, 0, 0<br/>1, 0, 0, 0, 0, 0, 0, 0, 0]<br/>class = Transportation and Material Moving>, fillcolor="#39e58f00"] ;
130 -> 366 ;
367 [label=<FOD2P__No major &le; 0.5<br/>gini = 0.897<br/>samples = 94<br/>value = [3, 4, 0, 7, 2, 2, 1, 8, 0, 7, 2, 3, 0, 2<br/>3, 13, 0, 19, 3, 2, 0, 12, 1]<br/>class = Military Specific>, fillcolor="#cb39e513"] ;
129 -> 367 ;
368 [label=<FOD2P__Economics &le; 0.5<br/>gini = 0.78<br/>samples = 10<br/>value = [0, 0, 0, 1, 1, 0, 0, 1, 0, 1, 0, 1, 0, 0<br/>0, 4, 0, 0, 1, 0, 0, 0, 0]<br/>class = Community and Social Service>, fillcolor="#6f39e555"] ;
367 -> 368 ;
369 [label=<FOD2P__Area Ethnic And Civilization Studies &le; 0.5<br/>gini = 0.741<br/>samples = 9<br/>value = [0, 0, 0, 0, 1, 0, 0, 1, 0, 1, 0, 1, 0, 0<br/>0, 4, 0, 0, 1, 0, 0, 0, 0]<br/>class = Community and Social Service>, fillcolor="#6f39e560"] ;
368 -> 369 ;
370 [label=<FOD2P__Geography &le; 0.5<br/>gini = 0.688<br/>samples = 8<br/>value = [0, 0, 0, 0, 1, 0, 0, 0, 0, 1, 0, 1, 0, 0<br/>0, 4, 0, 0, 1, 0, 0, 0, 0]<br/>class = Community and Social Service>, fillcolor="#6f39e56d"] ;
369 -> 370 ;
371 [label=<FOD2P__Philosophy And Religious Studies &le; 0.5<br/>gini = 0.612<br/>samples = 7<br/>value = [0, 0, 0, 0, 0, 0, 0, 0, 0, 1, 0, 1, 0, 0<br/>0, 4, 0, 0, 1, 0, 0, 0, 0]<br/>class = Community and Social Service>, fillcolor="#6f39e57f"] ;
370 -> 371 ;
372 [label=<FOD2P__Medical Assisting Services &le; 0.5<br/>gini = 0.5<br/>samples = 6<br/>value = [0, 0, 0, 0, 0, 0, 0, 0, 0, 1, 0, 1, 0, 0<br/>0, 4, 0, 0, 0, 0, 0, 0, 0]<br/>class = Community and Social Service>, fillcolor="#6f39e599"] ;
371 -> 372 ;
373 [label=<FOD2P__French German Latin And Other Common Foreign Language Studies &le; 0.5<br/>gini = 0.32<br/>samples = 5<br/>value = [0, 0, 0, 0, 0, 0, 0, 0, 0, 1, 0, 0, 0, 0<br/>0, 4, 0, 0, 0, 0, 0, 0, 0]<br/>class = Community and Social Service>, fillcolor="#6f39e5bf"] ;
372 -> 373 ;
374 [label=<gini = 0.0<br/>samples = 3<br/>value = [0, 0, 0, 0, 0, 0, 0, 0, 0, 0, 0, 0, 0, 0<br/>0, 3, 0, 0, 0, 0, 0, 0, 0]<br/>class = Community and Social Service>, fillcolor="#6f39e5ff"] ;
373 -> 374 ;
375 [label=<gini = 0.5<br/>samples = 2<br/>value = [0, 0, 0, 0, 0, 0, 0, 0, 0, 1, 0, 0, 0, 0<br/>0, 1, 0, 0, 0, 0, 0, 0, 0]<br/>class = Healthcare Support>, fillcolor="#39e5ba00"] ;
373 -> 375 ;
376 [label=<gini = 0.0<br/>samples = 1<br/>value = [0, 0, 0, 0, 0, 0, 0, 0, 0, 0, 0, 1, 0, 0<br/>0, 0, 0, 0, 0, 0, 0, 0, 0]<br/>class = Protective Service>, fillcolor="#39b4e5ff"] ;
372 -> 376 ;
377 [label=<gini = 0.0<br/>samples = 1<br/>value = [0, 0, 0, 0, 0, 0, 0, 0, 0, 0, 0, 0, 0, 0<br/>0, 0, 0, 0, 1, 0, 0, 0, 0]<br/>class = Installation, Maintenance, and Repair>, fillcolor="#e539d4ff"] ;
371 -> 377 ;
378 [label=<gini = 0.0<br/>samples = 1<br/>value = [0, 0, 0, 0, 1, 0, 0, 0, 0, 0, 0, 0, 0, 0<br/>0, 0, 0, 0, 0, 0, 0, 0, 0]<br/>class = Healthcare Practitioners and Technical>, fillcolor="#98e539ff"] ;
370 -> 378 ;
379 [label=<gini = 0.0<br/>samples = 1<br/>value = [0, 0, 0, 0, 0, 0, 0, 1, 0, 0, 0, 0, 0, 0<br/>0, 0, 0, 0, 0, 0, 0, 0, 0]<br/>class = Sales and Related>, fillcolor="#39e561ff"] ;
369 -> 379 ;
380 [label=<gini = 0.0<br/>samples = 1<br/>value = [0, 0, 0, 1, 0, 0, 0, 0, 0, 0, 0, 0, 0, 0<br/>0, 0, 0, 0, 0, 0, 0, 0, 0]<br/>class = Office and Administrative Support>, fillcolor="#c5e539ff"] ;
368 -> 380 ;
381 [label=<gini = 0.891<br/>samples = 84<br/>value = [3, 4, 0, 6, 1, 2, 1, 7, 0, 6, 2, 2, 0, 2<br/>3, 9, 0, 19, 2, 2, 0, 12, 1]<br/>class = Military Specific>, fillcolor="#cb39e519"] ;
367 -> 381 ;
382 [label=<gini = 0.815<br/>samples = 9<br/>value = [2, 1, 0, 0, 0, 2, 0, 1, 0, 0, 0, 0, 0, 0<br/>0, 0, 0, 1, 0, 0, 0, 2, 0]<br/>class = Architecture and Engineering>, fillcolor="#e5813900"] ;
128 -> 382 ;
383 [label=<gini = 0.868<br/>samples = 22<br/>value = [0, 0, 0, 0, 0, 2, 0, 4, 0, 1, 0, 0, 1, 0<br/>2, 2, 0, 5, 0, 0, 1, 2, 2]<br/>class = Military Specific>, fillcolor="#cb39e50e"] ;
127 -> 383 ;
384 [label=<FOD2P__Science And Computer Teacher Education &le; 0.5<br/>gini = 0.875<br/>samples = 24<br/>value = [3, 0, 0, 0, 3, 0, 0, 2, 0, 2, 0, 1, 0, 0<br/>0, 3, 0, 3, 0, 1, 0, 5, 1]<br/>class = Life, Physical, and Social Science>, fillcolor="#e5394d18"] ;
126 -> 384 ;
385 [label=<FOD2P__No major &le; 0.5<br/>gini = 0.87<br/>samples = 23<br/>value = [3, 0, 0, 0, 3, 0, 0, 1, 0, 2, 0, 1, 0, 0<br/>0, 3, 0, 3, 0, 1, 0, 5, 1]<br/>class = Life, Physical, and Social Science>, fillcolor="#e5394d1a"] ;
384 -> 385 ;
386 [label=<gini = 0.0<br/>samples = 1<br/>value = [0, 0, 0, 0, 1, 0, 0, 0, 0, 0, 0, 0, 0, 0<br/>0, 0, 0, 0, 0, 0, 0, 0, 0]<br/>class = Healthcare Practitioners and Technical>, fillcolor="#98e539ff"] ;
385 -> 386 ;
387 [label=<gini = 0.868<br/>samples = 22<br/>value = [3, 0, 0, 0, 2, 0, 0, 1, 0, 2, 0, 1, 0, 0<br/>0, 3, 0, 3, 0, 1, 0, 5, 1]<br/>class = Life, Physical, and Social Science>, fillcolor="#e5394d1b"] ;
385 -> 387 ;
388 [label=<gini = 0.0<br/>samples = 1<br/>value = [0, 0, 0, 0, 0, 0, 0, 1, 0, 0, 0, 0, 0, 0<br/>0, 0, 0, 0, 0, 0, 0, 0, 0]<br/>class = Sales and Related>, fillcolor="#39e561ff"] ;
384 -> 388 ;
389 [label=<FOD2P__Physical Sciences &le; 0.5<br/>gini = 0.923<br/>samples = 44<br/>value = [3, 0, 0, 4, 0, 3, 0, 4, 0, 2, 5, 1, 1, 0<br/>2, 3, 2, 5, 0, 1, 3, 4, 1]<br/>class = Building and Grounds Cleaning and Maintenance>, fillcolor="#39e2e500"] ;
125 -> 389 ;
390 [label=<FOD2P__Physical Fitness Parks Recreation And Leisure &le; 0.5<br/>gini = 0.919<br/>samples = 43<br/>value = [3, 0, 0, 4, 0, 3, 0, 4, 0, 2, 5, 1, 1, 0<br/>2, 3, 2, 5, 0, 1, 3, 4, 0]<br/>class = Building and Grounds Cleaning and Maintenance>, fillcolor="#39e2e500"] ;
389 -> 390 ;
391 [label=<FOD2P__Pre-Law And Legal Studies &le; 0.5<br/>gini = 0.92<br/>samples = 42<br/>value = [3, 0, 0, 4, 0, 3, 0, 4, 0, 2, 5, 1, 1, 0<br/>2, 3, 2, 5, 0, 1, 3, 3, 0]<br/>class = Building and Grounds Cleaning and Maintenance>, fillcolor="#39e2e500"] ;
390 -> 391 ;
392 [label=<gini = 0.92<br/>samples = 41<br/>value = [3, 0, 0, 3, 0, 3, 0, 4, 0, 2, 5, 1, 1, 0<br/>2, 3, 2, 5, 0, 1, 3, 3, 0]<br/>class = Building and Grounds Cleaning and Maintenance>, fillcolor="#39e2e500"] ;
391 -> 392 ;
393 [label=<gini = 0.0<br/>samples = 1<br/>value = [0, 0, 0, 1, 0, 0, 0, 0, 0, 0, 0, 0, 0, 0<br/>0, 0, 0, 0, 0, 0, 0, 0, 0]<br/>class = Office and Administrative Support>, fillcolor="#c5e539ff"] ;
391 -> 393 ;
394 [label=<gini = 0.0<br/>samples = 1<br/>value = [0, 0, 0, 0, 0, 0, 0, 0, 0, 0, 0, 0, 0, 0<br/>0, 0, 0, 0, 0, 0, 0, 1, 0]<br/>class = Life, Physical, and Social Science>, fillcolor="#e5394dff"] ;
390 -> 394 ;
395 [label=<gini = 0.0<br/>samples = 1<br/>value = [0, 0, 0, 0, 0, 0, 0, 0, 0, 0, 0, 0, 0, 0<br/>0, 0, 0, 0, 0, 0, 0, 0, 1]<br/>class = Arts, Design, Entertainment, Sports, and Media>, fillcolor="#e55339ff"] ;
389 -> 395 ;
396 [label=<FOD2P__Computer Engineering &le; 0.5<br/>gini = 0.84<br/>samples = 10<br/>value = [2, 1, 0, 1, 0, 2, 0, 0, 0, 2, 1, 0, 0, 0<br/>0, 1, 0, 0, 0, 0, 0, 0, 0]<br/>class = Architecture and Engineering>, fillcolor="#e5813900"] ;
124 -> 396 ;
397 [label=<gini = 0.84<br/>samples = 9<br/>value = [2, 1, 0, 1, 0, 1, 0, 0, 0, 2, 1, 0, 0, 0<br/>0, 1, 0, 0, 0, 0, 0, 0, 0]<br/>class = Architecture and Engineering>, fillcolor="#e5813900"] ;
396 -> 397 ;
398 [label=<gini = 0.0<br/>samples = 1<br/>value = [0, 0, 0, 0, 0, 1, 0, 0, 0, 0, 0, 0, 0, 0<br/>0, 0, 0, 0, 0, 0, 0, 0, 0]<br/>class = Management>, fillcolor="#6ae539ff"] ;
396 -> 398 ;
399 [label=<FOD2P__No major &le; 0.5<br/>gini = 0.87<br/>samples = 20<br/>value = [3, 0, 0, 2, 0, 3, 0, 3, 0, 0, 0, 1, 0, 0<br/>1, 4, 0, 1, 0, 1, 1, 0, 0]<br/>class = Community and Social Service>, fillcolor="#6f39e50f"] ;
123 -> 399 ;
400 [label=<gini = 0.0<br/>samples = 1<br/>value = [0, 0, 0, 0, 0, 0, 0, 0, 0, 0, 0, 0, 0, 0<br/>0, 0, 0, 0, 0, 1, 0, 0, 0]<br/>class = Farming, Fishing, and Forestry>, fillcolor="#e539a6ff"] ;
399 -> 400 ;
401 [label=<gini = 0.859<br/>samples = 19<br/>value = [3, 0, 0, 2, 0, 3, 0, 3, 0, 0, 0, 1, 0, 0<br/>1, 4, 0, 1, 0, 0, 1, 0, 0]<br/>class = Community and Social Service>, fillcolor="#6f39e510"] ;
399 -> 401 ;
402 [label=<gini = 0.444<br/>samples = 3<br/>value = [0, 0, 0, 0, 0, 0, 0, 2, 0, 0, 0, 0, 0, 0<br/>0, 1, 0, 0, 0, 0, 0, 0, 0]<br/>class = Sales and Related>, fillcolor="#39e5617f"] ;
122 -> 402 ;
403 [label=<gini = 0.86<br/>samples = 11<br/>value = [3, 0, 0, 0, 0, 1, 0, 1, 0, 0, 0, 0, 1, 0<br/>1, 1, 1, 1, 0, 1, 0, 0, 0]<br/>class = Architecture and Engineering>, fillcolor="#e5813933"] ;
121 -> 403 ;
